0 -0.024 0.058 0.064 -0.045 -0.027 -0.091 -0.042 -0.036 -0.004 0.053 0.082 -0.016 0.095 -0.026 -0.038 -0.012 -0.099 -0.094 -0.011 0.033 -0.064 -0.011 -0.068 -0.044 0.057 -0.059 -0.041 -0.078 0.035 0.042 0.006 0.042 0.048 0.005 0.029 0.05 0.001 -0.048 -0.023 0.054 0.04 0.076 -0.008 0.039 0.023 -0.038 0.082 -0.041 -0.015 -0.058 0.03 -0.006 -0.086 -0.045 0.072 0.029 -0.073 -0.012 0.09 -0.036 -0.067 -0.074 -0.052 0.05 -0.024 0.03 -0.091 -0.037 -0.087 -0.083 -0.009 -0.058 -0.088 0.046 0.03 -0.068 0.091 0.055 0.059 0.037 0.083 -0.041 0.05 -0.036 0.02 0.021 0.099 0.084 -0.034 -0.099 0.038 0.088 -0.067 0.093 0.083 -0.021 0.017 -0.014 -0.016 -0.051 0.049 -0.056 0.003 0.008 0.009 -0.002 -0.085 -0.043 -0.087 0.003 0 0.018 0.096 0.081 -0.098 -0.057 0.022 0.092 0.079 0.057 0.091 -0.088 0.011 0.034 0.055 0.046 0.086 -0.033 -0.042 0.016 -0.098 0.051 -0.099 -0.076 0.089 -0.012 0.01 -0.069 -0.088 -0.089 -0.023 0.085 0.085 0.026 -0.057 0.032 -0.054 -0.089 0.029 0.092 -0.055 0.049 -0.012 -0.06 0.053 -0.023 -0.096 -0.029 -0.037 0.049 -0.095 -0.016 0.005 0.082 -0.034 0.001 0.071 0.063 -0.055 -0.053 0.008 0.045 -0.056 -0.058 0.082 -0.044 0.022 -0.061 -0.05 -0.066 0.059 0.039 -0.024 0.01 -0.049 0.013 0.022 0.018 -0.005 0.091 0.025 -0.014 0.024 0.074 0.059 -0.07 -0.097 0.077 -0.07 -0.068 0.085 0.08 -0.027 0.099 -0.025 -0.024 -0.072 -0.081 -0.032 -0.093 -0.031 0.042 0.086 0 -0.06 -0.074 0.07 -0.033 -0.06 0.067 -0.05 0.094 -0.024 -0.025 0.094 0.002 -0.066 0.093 -0.084 0.064 -0.052 0.087 0.026 0.057 0.015 0.027 -0.058 0.009 0.086 -0.087 -0.074 -0.027 -0.028 -0.02 0.062 -0.096 -0.061 -0.025 0.06 0.016 0.026 -0.071 -0.047 -0.02 0.024 0.051 0.029 0.013 0.078 -0.007 0 0.039 -0.06 -0.024 -0.008 -0.087 -0.05 0.028 -0.084 -0.04 -0.004 -0.056 0.05 -0.085 0.016 0.057 0.057 -0.071 -0.061 0.022 -0.012 -0.096 -0.041 -0.029 -0.065 -0.032 0.055 -0.062 0.034 0.072 -0.069 0.063 -0.083 -0.035 -0.048 -0.038 -0.042 0.011 -0.075 -0.025 -0.07 0.034 -0.083 0.098 -0.001 -0.034 -0.034 0.093 0.005 0.048 0 -0.041 -0.055 0.062 -0.077 0.078 0.043 0.073 0.013 -0.072 0.01 -0.032 0.095 -0.031 0.088 -0.09 -0.089 0.045 -0.014 -0.04 0.058 -0.059 0.005 0.081 -0.029 -0.008 0.097 -0.056 -0.027 -0.041 -0.04 -0.074 -0.077 -0.083 -0.092 0.001 0.059 0.028 -0.084 -0.086 0.07 -0.047 0.003 -0.063 0.063 0.071 -0.04 0.042 -0.013 -0.004 0.032 0.005 -0.039 -0.022 0.047 0.048 -0.064 -0.075 -0.012 0.078 -0.062 -0.085 -0.044 -0.04 -0.008 0.07 -0.023 0.072 0.087 0.063 -0.003 -0.027 0.069 -0.065 0.043 -0.088 -0.037 -0.063 -0.081 0.042 0.06 -0.058 0.088 0.09 -0.043 0.02 0.067 0.083 -0.026 -0.038 -0.029 0.048 -0.059 -0.066 0.055 0.026 -0.025 -0.001 -0.096 0.015 0.042 -0.013 0.096 0.072 0.006 -0.029 0.005 0.012 -0.093 -0.036 0.041 0.094 0.052 0.038 0.055 -0.031 0.041 -0.011 -0.086 0.05 0.034 -0.053 0.052 0.062 -0.054 -0.034 -0.056 0.024 -0.013 -0.028 0.08 0.058 0.055 -0.064 -0.076 -0.009 0.061 -0.048 0.053 0.02 0.023 -0.069 0.059 0.019 -0.003 -0.081 0.092 -0.013 0.089 0.038 -0.01 -0.034 0.061 -0.093 -0.069 -0.069 0 -0.064 -0.015 -0.015 0.039 0.088 0.054 -0.01 0.074 0.015 -0.041 -0.079 0.098 -0.088 -0.032 0.089 -0.008 -0.09 -0.063 0.084 0 -0.085 0.071 -0.067 -0.095 0.025 0.029 0.098 -0.093 0.08 0.049 -0.028 -0.064 -0.005 0.016 0.026 0.087 -0.064 0.086 -0.062 -0.064 -0.015 0.073 0.041 -0.062 0.068 0.002 -0.007 -0.012 0.03 0.009 0.056 0.093 0.052 0.045 0.048 -0.012 -0.014 -0.058 0.004 -0.052 -0.079 0.023 0.066 -0.098 0.096 0.033 0.022 0.092 -0.025 -0.058 0.007 0.03 0 0.099 0.048 0.04 -0.075 0.067 0.097 0.097 0.051 0.03 -0.025 0.029 0.04 0.047 0.055 -0.092 -0.054 0.046 0.046 0.069 0.063 -0.015 -0.075 -0.028 0.07 -0.064 -0.062 -0.024 -0.069 0.023 0.033 -0.01 -0.036 -0.078 -0.036 0.064 -0.049 -0.005 -0.004 -0.023 0.07 0.068 -0.085 0.073 0.094 0.026 0.072 -0.04 0.019 -0.011 -0.089 -0.065 -0.085 0.05 -0.009 0.066 -0.074 0 -0.073 -0.061 0.068 0.031 0.026 0.022 0.079 0.052 0.091 -0.064 0.064 0.055 0.074 0.021 0.047 -0.089 -0.095 0.05 -0.054 -0.012 0.039 0.012 0.067 0.015 0.023 -0.034 0.086 -0.058 -0.006 0 -0.092 -0.032 0.074 -0.021 -0.022 -0.076 -0.048 -0.082 0.076 0.011 0.056 0.025 0.086 -0.069 -0.034 -0.068 0.091 0.083 0.027 0.071 -0.012 -0.027 0.045 0.085 0.037 -0.013 -0.05 0.011 0.049 0.054 -0.081 -0.067 -0.093 0.072 0.03 -0.042 -0.077 0.002 0.081 0.023 -0.023 -0.095 -0.027 0.01 0.058 0.087 0.028 -0.058 -0.06 -0.086 0.01 0.028 0.041 0.003 -0.065 0.081 -0.05 0.098 0.061 -0.056 -0.078 -0.035 -0.075 0.086 -0.06 0.048 0.092 -0.04 0.035 0.099 -0.092 0.028 0.069 0.094 0.052 -0.032 -0.008 0.097 -0.049 -0.041 0 0.048 -0.051 0.033 0 0.09 -0.019 0.078 -0.044 0.087 -0.025 -0.038 0.093 0.011 0.034 0.097 -0.029 0.005 -0.092 0.049 0.079 -0.077 -0.093 0.097 0.076 0.082 0.059 0.089 -0.049 0.072 0.008 -0.008 -0.003 0.007 0.074 0.011 -0.061 0.09 -0.083 0.032 0.041 0.013 0.096 0.015 0.099 0.08 0.032 -0.084 0.017 0.07 -0.082 -0.023 0.005 -0.095 0.016 0.078 -0.058 -0.05 -0.029 -0.095 -0.099 0.065 -0.008 0.043 -0.014 0.055 -0.073 0.048 -0.086 0.046 -0.017 -0.016 0.091 -0.012 0.093 -0.015 -0.057 0.052 0.051 -0.026 0.055 -0.094 0.097 -0.065 -0.061 0.078 0.04 -0.047 -0.07 -0.089 0.049 -0.065 0.082 -0.032 0.067 0.082 0.041 -0.087 -0.079 -0.038 -0.047 0.046 0.059 -0.022 0.086 -0.028 0.06 -0.077 0.003 -0.031 0.055 -0.006 0.021 0.081 -0.055 -0.024 0.035 0.074 -0.098 0.053 0.035 -0.088 -0.032 -0.08 0.078 0.001 -0.099 -0.063 0.073 -0.045 -0.074 0.053 -0.087 -0.01 -0.065 0.029 -0.012 0.081 -0.09 -0.005 0.032 -0.02 -0.031 0.093 0.078 0.006 -0.066 0.097 0.094 -0.088 -0.084 -0.078 -0.015 0.084 0.006 0.097 0.09 -0.085 0.099 0.01 -0.013 -0.085 0.08 -0.067 -0.044 0.007 0.027 0.031 0.071 0.093 -0.037 -0.004 -0.006 0.022 0 0.037 0.088 -0.089 -0.081 -0.084 -0.061 -0.017 -0.082 -0.065 -0.004 0.095 -0.021 0.081 0.006 0.043 -0.08 0.068 -0.013 0.051 0.079 0.04 -0.033 -0.063 -0.053 0.095 -0.074 0.035 0.076 -0.025 -0.008 -0.056 0.032 -0.04 -0.062 -0.062 0.036 -0.002 0.08 0.076 0.093 0.046 0.073 -0.08 -0.072 0.007 -0.066 -0.088 -0.068 -0.096 -0.009 0.036 -0.062 -0.042 -0.022 0.048 0.068 -0.014 0.09 -0.059 -0.095 -0.04 -0.099 -0.091 -0.081 0.053 -0.029 -0.042 -0.083 0.014 0.044 -0.029 0.064 -0.07 -0.047 0.087 0.076 -0.04 -0.09 0.01 -0.045 -0.07 -0.089 -0.078 -0.006 0.035 -0.096 -0.088 -0.079 -0.09 0.065 -0.005 -0.067 -0.034 -0.057 0.045 -0.018 0.044 0.063 0.064 -0.023 0.004 -0.027 -0.092 -0.063 -0.063 -0.065 -0.045 0.095 -0.022 0.051 -0.055 -0.038 -0.082 0.054 0.007 -0.038 0.09 -0.054 0.023 -0.078 0.081 0.033 -0.094 0.046 -0.045 -0.016 0.089 0.063 -0.097 -0.03 0.008 -0.074 0.072 -0.055 0.061 0.006 0.075 0.019 -0.032 0.079 -0.083 -0.018 -0.028 -0.077 -0.091 0.095 0.001 -0.032 0.08 -0.007 0.074 -0.09 0.041 -0.029 0.074 0.091 -0.087 0.039 -0.053 -0.081 -0.005 0.079 -0.039 0.098 -0.039 -0.021 -0.026 0.038 0.081 -0.078 -0.023 -0.034 -0.049 0.007 0.041 -0.046 -0.037 0 0.09 0.035 0.01 -0.082 0.089 -0.074 -0.022 -0.066 0.038 0.011 -0.067 -0.067 -0.042 -0.047 0.017 -0.023 0.003 0.051 0.036 0.067 0.005 -0.062 -0.075 0.031 -0.044 -0.003 0.015 0.019 0.091 -0.033 -0.042 0 0.078 -0.057 -0.093 0.003 0.033 0.071 -0.09 0.041 0.047 0.058 -0.002 -0.09 0.068 0.095 -0.008 -0.042 0.099 0.078 0.057 -0.047 -0.045 0.013 0.01 -0.085 -0.004 0.003 0.069 0.029 0.074 -0.03 0.044 -0.018 -0.063 0.073 0.031 -0.011 -0.098 0.003 0.079 -0.043 0.088 -0.034 0.022 0.011 0.051 0.077 0.076 0.02 -0.048 0.079 -0.057 -0.062 0.062 0.07 0.073 -0.086 0.017 -0.092 0.067 -0.065 -0.032 -0.081 -0.03 0.031 -0.052 0.072 0.007 -0.028 -0.09 0.077 -0.036 -0.043 0.033 -0.093 0.074 -0.082 -0.061 0.062 -0.097 -0.023 0.017 0.003 0.083 -0.059 -0.086 -0.065 -0.04 -0.097 -0.05 0.021 -0.081 -0.071 -0.099 0.079 0 0.061 0.005 0.028 -0.022 0.06 0.035 -0.014 -0.093 0.061 0.038 0.038 0.055 -0.071 0.052 0.033 -0.065 0.001 0.059 -0.048 -0.092 -0.033 -0.003 0.011 0.068 -0.098 -0.048 -0.047 -0.031 -0.075 0.049 0.099 -0.043 -0.054 -0.034 -0.067 0.093 0.066 -0.008 -0.084 0.067 0.069 0.011 0.09 -0.043 0.099 0.095 0.058 -0.058 -0.089 -0.04 0.064 -0.026 -0.003 0.012 0.07 0.095 -0.086 -0.009 -0.083 -0.09 0.086 -0.081 0.002 -0.062 0.065 0.032 -0.028 0.089 0.083 -0.065 0.045 0.021 -0.02 -0.073 0.051 -0.036 0.001 -0.01 0.09 0.071 0.035 -0.082 -0.018 -0.012 -0.098 -0.062 -0.092 -0.047 0.003 -0.015 -0.058 -0.045 -0.072 -0.062 0.073 0.038 -0.042 0.003 -0.025 0.001 0.082 -0.036 0.039 0.021 0.063 -0.075 0.081 0.061 0.002 0.095 0.016 -0.007 -0.084 0.059 -0.058 -0.068 -0.019 -0.041 -0.064 -0.015 0.029 -0.015 -0.036 -0.059 0.052 -0.041 -0.048 -0.098 0.024 0.033 -0.038 0.062 -0.084 -0.078 -0.085 0.024 -0.005 0.065 -0.007 -0.084 0.09 0.091 -0.085 0.09 0.098 0.018 -0.024 -0.076 0.069 0.027 -0.068 0.002 0 -0.018 0.084 -0.056 0.032 0.014 -0.039 0.02 -0.054 0.041 0.042 0.021 0.046 0.009 -0.008 -0.033 0.004 -0.042 0.06 -0.02 -0.078 -0.013 -0.091 0.015 0.061 0.011 -0.051 0.07 0.007 -0.084 -0.001 -0.058 -0.09 -0.012 -0.06 -0.072 0.076 -0.073 0.051 -0.028 0.061 -0.003 -0.007 0.051 -0.092 0.019 0.007 0.005 0.083 0.009 -0.038 0.071 -0.054 -0.014 -0.029 -0.066 -0.056 0.07 -0.066 0.083 0.053 -0.091 -0.086 -0.029 0.017 -0.056 0.052 0.066 -0.06 -0.031 0.067 0.098 0.02 -0.007 -0.016 0.042 -0.063 0.047 -0.03 -0.043 0.014 0.017 0.02 -0.092 0.054 0.093 0.075 0.012 0.051 0.079 -0.077 -0.061 -0.072 0.044 -0.063 0.046 0.008 -0.03 -0.064 0.046 -0.081 0.011 0.091 0.023 -0.091 -0.03 0.069 0 -0.017 -0.014 -0.041 0.067 0.053 -0.073 -0.003 -0.016 -0.067 -0.002 0.057 -0.067 0.066 -0.071 -0.045 0.038 -0.047 -0.092 -0.057 -0.053 -0.08 0.03 -0.02 0.077 0.086 0.089 -0.044 0.01 0.019 -0.027 -0.019 -0.016 0.096 -0.058 0.093 0.049 0.072 0.094 0.033 0.029 -0.028 -0.041 -0.088 0.033 -0.07 -0.061 0.008 0.062 0.078 -0.097 -0.038 -0.083 0.095 0.033 -0.057 -0.034 -0.035 0.093 -0.093 0.051 0.094 -0.074 0.097 -0.095 -0.092 0.037 0.013 0.01 -0.028 -0.086 0.04 0.069 0.093 0.062 0.027 -0.094 -0.013 -0.013 -0.064 -0.095 0.081 0.009 0.068 0.011 0.035 -0.033 0.062 -0.077 0 0.058 0.054 -0.03 -0.095 -0.023 0.027 -0.011 -0.054 0.053 -0.021 -0.028 0 -0.071 0.052 -0.031 0.034 0.086 0.048 -0.065 0.012 0.052 -0.087 0.057 0.056 0.05 0.001 -0.099 0.044 -0.075 0.05 0.066 0.001 -0.043 -0.08 -0.018 -0.063 0.029 0.054 -0.079 -0.066 -0.077 -0.002 -0.092 -0.072 0.023 -0.048 -0.097 0.008 -0.093 -0.081 0.01 0.056 -0.065 -0.069 -0.053 -0.084 0.045 0.033 0 0.094 -0.085 0.081 0.056 0.072 0.001 0.035 0.071 -0.037 -0.068 -0.095 -0.003 0.011 -0.034 0.093 0.061 0.058 0.006 -0.043 0.027 -0.084 0.093 -0.024 0.082 -0.027 -0.046 0.089 0.037 0.059 0.056 -0.003 0 -0.025 -0.095 0.015 0.006 0.041 -0.098 -0.013 -0.012 0.057 0.039 0.094 0.043 0.011 0.055 0.047 0.09 -0.027 -0.054 0.072 0.041 -0.046 -0.013 0.029 -0.003 0.093 -0.087 0.079 -0.025 0.06 0.007 -0.092 -0.017 -0.003 -0.093 -0.011 -0.028 0.048 0.092 0.054 -0.053 0.047 0.026 -0.004 0.071 0.005 -0.056 0.067 -0.019 -0.066 -0.046 -0.087 -0.012 -0.099 0.097 -0.028 0.004 0.068 -0.096 0.02 0.018 -0.019 0.074 0.059 -0.014 -0.003 0.051 -0.014 -0.051 -0.09 -0.083 0.084 0.086 -0.048 -0.097 0.068 -0.048 -0.082 -0.069 -0.077 0.004 0.043 -0.011 -0.092 0.09 -0.09 -0.074 -0.074 0.073 -0.018 -0.033 0.011 0.063 0.049 0.045 -0.02 0.071 0.021 0.057 -0.082 0.022 -0.006 0.089 0.045 -0.023 0.05 -0.036 -0.006 0.013 -0.08 0.043 -0.045 0.049 -0.014 -0.027 0.004 0.017 -0.055 0.086 0.098 -0.011 -0.058 0.075 0.032 -0.096 0.012 0.029 0.036 -0.053 0.07 -0.052 -0.097 -0.001 -0.093 0.016 0.028 -0.025 0.096 -0.044 0.026 0.058 0.021 0.008 -0.028 -0.047 -0.08 -0.028 0.026 -0.077 -0.047 -0.031 0.084 0.069 -0.056 -0.045 -0.016 0.097 -0.09 -0.049 -0.086 0.075 -0.077 0.087 -0.082 0 0.015 0.01 0.099 -0.007 0.004 -0.085 -0.092 -0.012 0.083 -0.029 -0.033 0.064 -0.057 0.01 0.008 -0.032 -0.084 -0.001 -0.083 0.092 0.087 0.01 0.035 -0.015 -0.077 0.034 -0.033 0.086 0.034 -0.049 0.084 0.092 0.022 -0.013 0.073 0.06 0.053 -0.022 0.037 -0.006 -0.097 -0.036 -0.099 0.098 -0.047 0.092 -0.096 -0.028 0.042 0.095 0.037 0.067 -0.093 -0.046 -0.024 0.065 -0.006 -0.092 -0.075 0.061 -0.018 -0.027 0.096 -0.041 0.09 0.015 0.023 0.044 0.037 0.093 -0.071 0.077 0 0.085 -0.018 0.006 -0.008 -0.025 0.08 0.07 0.047 0.036 0 -0.064 -0.04 0.004 -0.066 -0.07 -0.006 0.056 -0.066 -0.078 -0.074 -0.091 0.032 0.096 -0.09 -0.007 0.046 0.002 -0.026 -0.006 0.05 0.079 0.022 -0.001 0.076 0.057 0.038 0.044 -0.08 0.043 0.061 -0.039 0.09 0.079 0.019 -0.084 -0.077 -0.013 -0.071 0.039 0.021 -0.034 -0.058 0.069 -0.004 0.002 -0.038 0.065 0.081 -0.023 -0.071 -0.082 0.016 0.019 -0.013 -0.051 -0.083 0.038 0.084 -0.001 0.033 -0.014 -0.095 0.041 0.077 0.065 -0.038 0.067 -0.087 0.022 -0.041 0.004 0.068 -0.072 0.074 0.037 -0.041 -0.018 -0.074 0.046 0.024 0.081 0.04 0.096 0.027 -0.018 -0.041 -0.091 -0.059 0.017 0.043 0.064 -0.057 0.066 -0.046 0.089 0.045 -0.052 -0.026 -0.084 -0.05 -0.046 -0.07 0.095 -0.023 0.056 0.01 0.092 0.09 -0.052 0.015 0.061 0.084 -0.034 0.082 0.036 0.09 -0.082 0.016 0.025 -0.01 0.082 -0.093 0.054 -0.095 0.038 -0.02 -0.083 -0.096 -0.09 0.089 -0.083 -0.029 -0.079 0 0.045 -0.051 0.063 -0.007 0.076 -0.011 -0.064 0.031 0.098 0.055 -0.057 0.064 0.01 0.065 0.065 0.04 -0.042 0.094 0.07 0 0.006 0.096 -0.011 -0.015 -0.075 0.048 -0.079 0.021 0.097 -0.009 0.071 0.022 -0.097 -0.099 0.02 0.084 0.015 -0.085 -0.099 0.069 -0.079 0.007 -0.006 -0.075 0.024 -0.074 0.028 0.045 -0.014 -0.068 0.007 -0.004 -0.097 -0.055 -0.043 -0.097 -0.036 -0.033 0.03 0.004 -0.088 0.054 0.076 -0.015 0.031 0.075 0.014 0.057 0.038 -0.047 0.018 0.031 -0.019 -0.09 -0.072 -0.002 0.028 -0.098 -0.045 0.022 0.094 -0.044 -0.047 0.085 0.023 -0.053 0.03 -0.066 0.012 0.018 -0.042 0.006 0.084 -0.07 0.05 -0.011 0.095 0.02 -0.083 0.092 0.084 -0.087 0.043 0.059 -0.016 0.032 -0.083 0.015 0.016 0.039 -0.005 -0.046 -0.075 -0.087 0.03 0.035 -0.073 0.073 -0.086 -0.085 0.045 -0.085 -0.035 -0.083 0.096 0.085 0.021 0.082 0.088 -0.036 0.065 0.098 0.086 -0.076 -0.021 0.045 0.064 -0.072 -0.07 0.054 -0.08 0.091 0.01 -0.067 -0.075 0.099 -0.09 0.056 0.003 0.067 -0.042 -0.066 0.086 -0.098 0.064 -0.065 0.04 0.014 0.012 0.038 0.025 0.049 -0.079 -0.038 -0.021 -0.091 -0.039 0.065 0.073 -0.07 -0.053 0.008 -0.029 0.089 -0.071 -0.059 -0.072 0.066 0.07 0.099 -0.05 0.036 0.006 -0.013 -0.071 -0.073 -0.073 0.002 -0.017 -0.053 0.095 -0.013 0.07 -0.005 0.033 -0.052 -0.019 0.093 -0.065 -0.044 -0.071 -0.099 -0.096 -0.052 0.053 -0.09 -0.057 0.009 -0.086 -0.059 -0.035 0.001 0.069 0.031 0.074 -0.043 0.016 0.011 -0.022 -0.057 -0.074 0.083 0.095 0.083 -0.003 0 0.08 0.005 0.058 0.057 -0.02 0.056 -0.032 0.082 -0.02 0.074 -0.094 -0.064 0.014 0.09 -0.055 -0.067 0.031 -0.08 0.028 0.02 -0.091 0.087 0.026 -0.059 0.02 -0.014 0.047 0.034 0.051 0.078 0.089 0.076 0.09 -0.072 -0.001 0.044 -0.039 -0.027 -0.086 0.027 -0.023 -0.014 -0.044 0.069 0.076 0.052 0.037 -0.088 0.088 0.074 -0.015 0.056 0.016 0.029 0.084 0.049 0.026 0.002 -0.016 -0.052 -0.055 -0.044 0.043 0.099 0.021 -0.013 -0.093 -0.06 -0.074 0.008 -0.026 0.091 0.029 0.077 -0.008 0.022 0.037 0.003 0.012 -0.053 -0.099 0.002 0.069 0.029 0.038 0.026 -0.034 0.048 -0.003 -0.018 -0.037 -0.079 -0.044 -0.061 -0.076 0.045 0.072 0.096 -0.035 -0.029 0.032 0.058 -0.02 0.024 0.026 0.083 -0.074 -0.088 0.064 0.077 -0.042 0.023 0.025 -0.042 0.049 -0.09 0.028 -0.004 -0.009 -0.079 0.083 0.032 0.099 -0.047 -0.09 -0.059 0.039 0.08 -0.078 0.056 0.044 -0.025 0.098 0.08 -0.064 0.072 -0.093 0.005 0.033 -0.087 0.038 -0.064 0.099 0.008 0.038 0.038 -0.059 -0.044 0.069 -0.018 -0.058 -0.061 -0.09 0.026 -0.004 0.068 -0.047 0.066 0.065 0 -0.073 0.068 -0.079 0.028 0.058 -0.067 0.034 0.069 0.07 -0.035 0.011 0.05 0.045 -0.054 -0.017 -0.042 0.073 -0.079 -0.088 -0.086 0.009 0.021 -0.081 0.02 -0.054 -0.084 -0.099 0.029 0.057 -0.065 0.049 0.092 0.019 -0.013 -0.017 -0.06 -0.053 -0.062 0.054 0.034 0.05 -0.045 0.047 -0.061 0.059 0.085 -0.018 -0.068 0.05 0.099 0.035 0.092 0.082 -0.016 -0.058 -0.099 -0.057 0.071 0.08 -0.006 -0.086 -0.052 0.035 -0.028 0.06 -0.049 0.085 0.057 -0.041 0.093 0.033 -0.068 -0.035 -0.096 -0.061 -0.084 -0.099 -0.049 0.006 0.087 0.069 -0.088 -0.083 0.058 0.038 -0.02 0.058 -0.023 -0.098 0.07 -0.096 -0.088 -0.046 0.075 -0.019 -0.097 -0.054 0.058 0.091 -0.037 0.032 -0.036 0.058 0.085 -0.084 -0.027 -0.026 0.036 -0.07 -0.048 -0.099 -0.073 -0.051 -0.017 -0.071 0.029 -0.044 0.067 0.028 0.034 -0.057 0.081 -0.041 -0.049 -0.099 -0.099 -0.045 0.001 0.083 -0.035 0.095 -0.07 -0.017 0.052 0.073 0.055 0.07 -0.03 0.065 0.08 0.058 0.008 -0.067 -0.028 0.099 0.07 0.012 0.064 -0.084 0.011 0.068 0.026 0.066 0.088 0.065 0.047 0.059 0.071 0.01 -0.066 0.07 -0.025 0.074 0.043 -0.036 0.034 -0.061 -0.015 0.082 -0.082 0 -0.037 0 0.064 -0.095 -0.029 -0.088 0.044 0.075 -0.09 0.019 -0.095 0.007 -0.074 0.056 0.032 0.022 -0.053 -0.055 -0.025 -0.028 -0.027 0.09 0.054 -0.092 0.018 0.056 0.082 -0.039 -0.093 -0.069 -0.033 -0.092 -0.026 0.08 0.061 -0.007 0.045 0.021 0.082 0.091 0.015 -0.043 -0.071 0.035 -0.012 -0.067 -0.052 0.028 0.029 0.099 -0.051 0.041 0.083 0.044 0.077 -0.002 0.002 -0.049 0.075 0.038 -0.095 -0.005 0.023 -0.041 0.03 -0.02 -0.043 -0.074 0 -0.075 -0.03 0.022 0.09 -0.052 0.082 -0.088 -0.06 -0.023 0.059 -0.043 -0.084 -0.068 0.098 0.079 -0.013 0.047 0.071 0.044 0.048 0.053 -0.088 -0.025 -0.09 -0.046 0.075 0.078 -0.003 -0.077 0.048 0.094 0.029 0.038 -0.072 0.062 -0.067 0.065 -0.059 0.089 0.019 -0.04 0.032 -0.022 -0.061 0.041 0.032 0.061 0.013 -0.045 0.01 0.07 -0.096 0.014 -0.01 -0.052 -0.071 0.03 0.061 -0.051 0.083 0.058 0.095 0.014 0.084 -0.012 -0.041 -0.09 -0.011 -0.082 -0.087 -0.05 -0.068 0.084 -0.035 0.005 -0.092 0.05 0.06 -0.059 -0.023 0 -0.056 0.048 -0.007 -0.091 0.082 0.019 0.079 -0.019 -0.001 -0.024 -0.025 -0.083 -0.088 0.063 0.034 0.051 -0.024 -0.067 -0.04 -0.055 0.061 0.027 0.039 0.037 0.048 0.048 -0.021 -0.075 -0.014 -0.062 0.076 0.058 -0.084 0.066 0.056 0.029 -0.029 -0.043 0.001 0.02 -0.036 0.082 0.066 0.093 0.079 -0.087 -0.097 0.094 -0.053 0.003 0.02 0.053 0.033 -0.065 0.08 -0.066 0.068 0.028 -0.044 -0.049 -0.003 0.04 -0.01 -0.082 -0.087 -0.061 -0.099 -0.018 -0.058 -0.058 0.078 0.057 0.021 0.056 -0.06 0.043 0.041 -0.052 0.011 -0.093 -0.081 -0.06 0.071 0.094 0.035 0.055 -0.023 0.088 -0.01 -0.032 0.01 -0.019 0.089 -0.051 -0.023 -0.049 0.007 0.084 -0.012 -0.004 -0.051 -0.032 -0.038 -0.028 0.026 0.045 0.005 -0.057 0.001 -0.027 0.053 -0.042 -0.049 0.055 0.048 -0.015 -0.073 -0.049 -0.069 -0.07 -0.068 0.078 0.081 -0.086 -0.031 0.059 0.089 0.038 0.072 0.056 -0.047 -0.011 0.019 -0.005 -0.088 -0.045 -0.092 0.076 -0.003 -0.099 0.067 0.014 -0.093 -0.054 0.031 -0.026 -0.099 -0.074 0.012 -0.057 -0.091 0.029 -0.061 0.096 0.083 -0.054 0.002 -0.076 0.081 -0.023 0.043 0.069 0.089 -0.099 -0.079 0.052 -0.05 0.045 -0.071 -0.09 0.077 -0.019 0.028 0.022 0.085 0.084 -0.084 -0.015 -0.081 0.059 0.046 0.027 -0.021 -0.018 0.05 -0.061 0.058 0.071 -0.002 0.02 0.053 0.086 -0.035 0.013 -0.092 0.065 0.036 -0.046 0.012 0.015 -0.026 -0.073 0.08 -0.09 -0.014 -0.057 0.049 0.085 0.002 0.074 0.048 -0.038 0.037 0.092 0.043 -0.081 0.091 -0.084 0.085 -0.099 0.086 -0.05 -0.085 0.008 0.099 -0.096 -0.031 0.002 0.037 0.077 0.051 0.063 -0.005 -0.067 0.055 -0.095 0.072 0.07 0.021 -0.023 -0.065 0.035 -0.099 -0.092 0.024 -0.066 -0.022 0.018 -0.092 0.061 0.028 0.049 -0.026 0.078 -0.038 -0.044 -0.039 -0.04 0.066 -0.048 -0.051 -0.051 0.057 -0.009 -0.076 0.023 0.054 -0.006 -0.099 0.03 -0.058 0.084 -0.031 0.083 -0.022 0.087 0.068 0.079 -0.009 -0.041 -0.077 -0.072 0.035 -0.017 -0.043 -0.065 0.091 -0.038 0.076 0.091 -0.009 0.097 0.028 0.059 0.04 -0.094 0.02 0.046 0.086 -0.043 0.074 -0.088 -0.027 0.004 -0.046 -0.085 0.05 0.073 -0.012 0.083 -0.068 -0.083 -0.087 -0.045 0.039 -0.048 -0.007 0.054 -0.04 -0.018 0.077 -0.072 -0.085 0.02 -0.002 -0.006 0.024 0.037 -0.099 0.09 -0.006 -0.075 0.092 -0.047 0.084 -0.029 0.005 0.089 -0.07 0.082 0.08 -0.072 -0.051 0.055 0.077 0.029 0.051 -0.037 -0.076 0.073 -0.097 -0.025 -0.062 -0.06 0.073 -0.009 0.081799 -0.0148453 -0.0460611 0.0681143 0.061002 0.086225 0.0890425 -0.00382042 -0.0941733 0.0976766 0.0330052 0.0840071 -0.0641705 0.0138451 0.0959716 -0.0481176 0.0959571 -0.0906109 0.0889945 0.0549337 0.051151 -0.0710687 -0.0278468 -0.0540186 -0.0298258 0.0910868 -0.0530466 0.0667151 0.0770879 0.0968398 0.0731544 -0.0620414 0.0289866 0.0390039 -0.0410397 -0.0200829 0.04693 -0.0819165 0.0888613 0.0031464 0.0619401 0.092254 -0.0631286 -0.0110303 0.0920143 -0.0698474 -0.0491361 0.0761051 -0.0858386 0.00308464 0.0980515 0.0780058 0.022852 -0.0110958 -0.0169599 -0.0271199 0.0899966 0.00110975 -0.0442077 0.0121531 0.0329654 0.000994752 -0.034842 0.0329726 -0.034057 -0.071015 0.0629044 -0.0400198 0.0819268 0.066188 0.0271842 0.0708238 0.00499164 -0.0339778 0.0549539 -0.0990663 0.0749607 -0.0389427 0.0881449 0.0727213 0.0580297 0.0870603 0.0128832 -0.051823 0.07823 0.00404258 0.0490648 -0.036823 -0.0589422 0.0551408 -0.0261332 -0.066004 0.0550072 0.0457531 0.0348161 -0.035989 0.0380599 0.00281711 0.0991235 -0.0248975 0.0240052 0.0628733 -0.075919 -0.0339058 -0.0259997 -0.0439754 0.0608411 -0.0751131 -0.0960036 -0.0708834 0.0128567 0.0300042 0.00886673 0.058899 0.0461468 -0.00299826 0.0911693 -0.0960474 -0.0500187 -0.0348726 0.0670326 -0.065101 -0.0731744 -0.0161515 -0.0150393 0.0429032 0.0967805 -0.0910345 0.0631155 -0.00708765 0.0210339 -0.0577907 0.0748323 -0.0759348 -0.0192462 -0.0112027 0.00926276 -0.0629037 0.0139857 0.0829195 0.088052 -0.00483072 0.0400924 0.0911781 0.0849422 -0.0200872 0.0969181 0.00311601 0.0619556 -0.053883 0.00184136 0.0291329 0.0258426 -0.0278817 0.0789652 -0.0988834 -0.0418715 0.0159924 0.0979661 0.0302194 -0.0510001 0.0439706 -0.0851302 -0.0722229 -0.0581087 0.0289508 0.0600498 0.0270237 0.0221374 0.0731787 0.0331931 0.0510843 -0.0340447 -0.0219756 -0.00200177 0.0798048 -0.0880826 -0.0848832 0.00987223 -0.0740952 0.0989601 0.0549681 -0.0650672 0.0720134 0.0259433 0.0230399 -0.0868782 0.0968515 0.0750553 0.0780097 -0.0928402 0.00579365 -0.0891352 -0.0211698 -0.0640542 0.0128787 -0.00980738 0.0629865 0.0880012 -0.0639812 -0.0540221 0.0160221 0.0860059 -0.0242192 0.00182435 0.0590281 0.0821216 -0.0738731 0.0658754 0.0538002 0.0499943 0.025711 0.0017881 -0.00103551 -0.0490893 -0.00357133 -0.0810701 -0.010215 0.0888938 0.083936 -0.00580358 0.0868663 -0.0900142 0.0182189 -0.0526915 -0.0619127 0.0128012 -0.0151227 0.0850003 -0.0638114 0.0372061 -0.0841811 -0.0722808 -0.0440398 0.0571272 0.0285256 -0.0401445 -0.000899204 -0.0760423 -6.65152e-05 0.0130561 -0.0111188 -0.0320942 -0.0140827 -0.016134 0.0340254 -0.0520502 0.0410037 -0.0500688 0.0689446 -0.0619348 -0.011242 -0.0110355 -0.0211026 0.0450283 -0.0533329 0.0438346 -0.0356501 0.0251279 -0.0530483 -0.0060333 -0.0282153 -0.0698254 -0.0276048 -0.0599799 0.0146734 0.0777671 0.0836904 0.0826747 0.0370192 -0.0302212 0.0150431 0.0204811 -0.0508334 0.0459258 0.00403197 -0.0247613 0.0486461 0.0298825 0.00837117 0.0292621 -0.0328507 0.0460574 0.0817978 -0.039038 0.0343537 -0.0694355 -0.0293424 0.0211008 -0.0888212 -0.0445641 -0.00527381 -0.0134354 0.0993407 -0.015717 0.0587703 -0.0835603 0.0438039 -0.0316712 -0.0509677 -0.0899633 0.094987 0.060504 0.0671208 -0.0332065 -0.0904798 -0.0775228 -0.078735 0.0148223 -0.0719396 -0.0518753 0.0231226 0.0368777 0.0101466 -0.0785565 -0.0607603 -0.0172472 0.0829234 -0.0946551 -0.0719092 0.00301097 0.0445531 -0.0505188 0.0419026 0.054934 -0.0678647 -0.000333149 0.046382 0.0873977 -0.00915167 0.0329585 -0.0406225 -0.0241995 8.32386e-05 0.0312263 -0.0181357 0.0842133 -0.0438014 0.0191334 0.0672699 -0.073274 -0.0297814 -0.0154051 0.0992116 0.0851826 -0.0205108 0.0405332 0.0729894 -0.0518507 -0.0295308 0.0580496 -0.064876 -0.0499679 0.0904705 -0.0127521 -0.0854274 0.089999 0.00520326 0.0218444 -0.0655166 0.0908845 -0.0661224 -0.0796556 0.0667819 -0.0028657 0.0203282 -0.0339055 -0.0326887 -0.0873024 -0.0274285 0.0239795 0.017775 0.0442479 -0.0855246 -0.00813907 -0.0967413 0.0212714 -0.0075064 -0.0224637 -0.0911842 0.0511614 -0.0655521 0.0794276 -0.064818 0.000372508 0.0350183 -0.0117581 0.0766014 -0.0893807 0.0989277 0.0599938 0.0304137 0.00104527 0.0801104 0.0449053 -0.0682307 -0.0623639 0.0332326 0.0821121 0.0605894 0.0409232 -0.0361135 -0.0326519 -0.0267923 0.0282415 -0.083719 0.0671536 -0.0968297 -0.00566475 0.0635289 0.0898589 -0.0435642 -0.0427838 -0.0643557 -0.0583147 0.0113649 0.0472978 -0.0289336 -0.0804408 -0.0649065 0.0758708 -0.0182331 0.0470124 0.0471219 -0.0318284 -0.0364128 -0.0958251 -0.0234447 -0.0533292 -0.0403017 0.0290901 -0.0654186 0.0318773 -0.0187133 0.0385458 0.0379236 -0.00304762 0.0201103 0.048893 -0.0240227 0.0869885 0.0293176 -0.0977516 -0.0381538 -0.0015508 -0.085134 -0.0106689 0.026103 -0.0303048 -0.082843 0.0307742 -0.0905839 0.0567251 0.0480956 -0.0258713 -0.063996 -0.0932268 -0.0370014 0.0378825 0.0692673 -0.0456271 0.0590801 -0.0204456 -0.0604087 -0.0231817 -0.00588883 -0.0131175 0.0836203 -0.0349182 0.0697815 -0.0570054 0.0526633 -0.0921661 0.0324843 -0.0832585 -0.0996735 -0.0892241 -0.000445335 -0.0731978 0.0862656 -0.00782793 0.0810296 -0.0995418 -0.00778934 -0.0188214 0.0272964 -0.0597471 -0.0523145 0.00158355 0.0977301 -0.068338 0.0885602 -0.0575574 -0.0186236 -0.0488527 0.0456956 0.0673383 0.00841866 0.0787002 -0.00708507 -0.0386029 -0.0996024 0.0142879 0.054676 0.0649337 0.0197856 -0.0639404 -0.0036356 0.0501041 -0.00143295 0.0267985 -0.017703 -0.0976944 0.0310124 0.0542912 -0.00333221 -0.00904198 0.0323249 -0.0299092 0.0320022 -0.0906682 -0.0315755 -0.0172719 -0.0213619 0.00505353 -0.0206011 0.069823 0.0943347 0.0265271 -0.07665 -0.00506905 0.0421971 0.0178976 0.0237734 -0.0643913 0.0703455 0.0438671 -0.00904535 0.0721773 0.0733563 -0.0972563 0.040671 -0.0407481 -0.0682801 -0.0208552 -0.0268106 0.0824689 -0.0321027 -0.0623141 0.0351757 0.03454 0.0345005 0.0275225 0.0242756 0.0325664 -0.0248902 0.0820061 0.0646138 0.0637797 -0.0221217 0.00848967 0.0313727 -0.0255945 0.0632808 0.0191629 -0.0406994 -0.0759588 0.0214285 0.0868722 -0.0391043 -0.0521131 0.0738937 -0.0410779 -7.24767e-05 0.0339989 0.0801677 0.023151 -0.0684608 -0.0343445 -0.0440601 0.00810486 0.0186924 0.0492933 -0.0802583 -0.047537 0.0187771 0.0400662 0.0694689 -0.0331263 0.0219529 -0.0401014 -0.0505846 0.047165 -0.0499259 0.0964332 0.030869 -0.0507526 0.0391395 -0.069496 0.0428042 0.0730625 0.0572013 0.0658051 -0.0430022 0.0141485 0.0710108 -0.0616095 -0.0198888 0.0268899 -0.0531436 -0.028025 -0.0966125 -0.081014 -0.0105779 -0.0783705 -0.0896917 -0.0341292 0.0468039 -0.0223422 -0.0739672 0.0221581 -0.0189188 -0.0655455 -0.0936638 0.0239882 -0.0892307 0.0966194 0.0597453 -0.0731367 -0.00435532 0.0378908 0.0179776 0.0442227 0.0146825 -0.0230912 -0.0238358 0.0692755 0.0696215 -0.0151023 -0.0287135 0.0371332 -0.029766 0.000186523 -0.0938408 -0.00301505 0.0587607 0.00548021 -0.0691584 -0.0544771 -0.0511117 0.0769293 0.0389394 0.00146834 0.0958464 -0.0231003 0.0232219 0.0710554 0.0200863 -0.0554131 0.0489484 -0.096623 0.0430277 0.0914446 -0.00413442 -0.0932434 0.0493002 -0.0810723 0.0452008 -0.0450724 0.0326227 0.0987325 -0.0971286 -0.0406683 -0.0988543 0.0738267 -0.0594656 0.0451212 -0.0591394 0.0668924 0.0680779 -0.094144 -0.0957819 0.0227241 0.0174126 -0.0682575 0.0817175 -0.0738954 0.0840098 0.0680646 -0.00396563 0.0208059 0.011147 0.0510441 0.0422004 0.0250446 0.0509421 0.0981253 -0.0797438 -0.0820204 -0.0138093 0.00436515 0.00882729 0.00497905 0.0655046 -0.0800097 0.0404756 0.0858807 -0.0333541 -0.0236625 0.0921391 -0.0508597 0.0269587 -0.0871986 -0.0200555 -0.0271452 -0.0102813 -0.00326988 -0.0829793 -0.0346794 -0.077764 0.0801014 0.0104978 -0.053117 0.00828177 0.0474946 0.0408434 0.0162117 -0.0178843 -0.0840141 -0.07405 -0.085029 0.0594065 0.0853848 0.000830094 -0.0051855 -0.0951251 0.00955258 -0.0871799 0.0248815 0.00142062 -0.0458021 0.0518702 -0.0892207 -0.0979088 -0.0188921 -0.0572033 -0.0725731 -0.0684462 -0.0102681 -0.0248267 0.0392669 -0.0181766 -0.0177603 -0.0673574 -0.0661041 0.0261068 -0.0823444 0.0592676 0.0574428 0.0536305 0.0610938 0.0208963 -0.0980925 -0.0581177 -0.0447976 -0.0892317 0.0557067 -0.0254508 0.0210127 0.0620005 -0.00798787 0.0299862 -0.0900017 -0.0689865 -0.0529962 -0.0559999 -0.0830278 0.0930177 -0.0620113 0.0659849 -0.0189978 -0.0639834 -0.00800737 -0.0139861 0.0119803 -0.0219854 -0.0920029 0.0990082 0.0709957 0.0919906 0.0170254 0.0879727 -0.0890055 0.0139981 0.0680074 0.0579732 -0.0450107 0.0969863 -0.0469895 -0.0370117 -0.00699397 0.0490079 0.0389779 0.0119957 0.0309869 0.0910073 -0.0450192 -0.0159791 0.0559801 -0.0719885 0.00798193 0.00900458 0.0580003 0.0439839 0.0299908 -0.0490051 -0.0679796 0.00101553 -0.0549831 0.0270117 -0.0619932 0.0180125 0.0890017 -0.0409821 -0.0960053 -0.0400043 -0.0350047 0.0819956 0.0500384 0.051997 -0.00100005 0.033007 -0.0939937 -0.0260192 -0.0330144 0.0119975 0.0250044 0.0119872 0.0450122 0.00198924 -0.0579807 -0.0770093 0.0110028 -0.0500221 0.0799947 -0.027002 -0.0160042 -0.0180244 0.0770069 -0.0649969 0.013018 -0.0760055 0.0740103 0.0410058 -0.096979 0.0479918 0.0480026 0.0360084 0.0169919 -0.0240001 -0.0379938 0.0610005 0.0469746 0.0390046 -0.0810046 0.013994 -0.016001 0.0670161 -0.0670006 -0.0630241 0.0739846 0.0990128 -0.0800054 -0.0240082 -0.0860143 0.0570014 -0.0149934 0.0750034 0.0820189 -0.036986 0.0619995 -0.0280096 -0.0120159 0.0759894 0.0579943 -0.0909731 0.0219955 0.0499991 0.0280093 -0.0420132 0.0599962 -0.0769932 -0.0949885 0.0129842 0.0249957 0.0950119 -0.0479944 0.0840097 0.0910078 0.0320066 -0.0370006 0.03199 0.0339783 -0.0370066 0.00202179 -0.0140047 0.0689971 0.0469975 0.00297785 -0.0060064 -0.0970042 -0.00199076 -0.0629977 -0.0169964 -0.0509755 -0.0380022 0.0540157 -0.0119988 0.0219769 -0.0740056 -0.00796847 0.0510125 -0.023003 0.0110084 0.088997 -0.0150157 -0.0280111 -0.0210054 -0.0629862 -0.0879939 -0.0140072 0.0749806 0.031005 -0.0190058 -0.0470045 0.00600325 0.051994 -0.0609909 0.0799885 -0.0499828 -0.0380107 0.0510299 -0.0399956 -0.0249996 0.00400269 -0.0799986 0.0109919 0.0580061 -0.0509982 -0.0299916 0.0470019 -0.0960024 0.00500522 -0.00598933 0.0149992 -0.0879921 -0.0339848 -0.0230072 0.0629991 -0.0260206 0.00699959 -0.0660219 -0.025005 0.0479852 -0.0299859 -0.0129942 0.0160058 0.00499828 -0.00700828 0.00299769 -0.0520061 -0.0840117 -0.0940112 0.0900009 0.0470134 -0.00703184 0.0580042 -0.0460209 -0.0220049 0.0130117 0.0519789 -0.0910065 0.0240088 -0.00799518 0.0579994 0.0629979 -0.0310012 -0.0790247 1.60343e-05 -0.00900708 0.0539923 0.0970365 -0.078977 0.0389925 0.0809951 0.0919759 -0.0969918 -0.0130054 0.0289908 -0.0509962 0.0939628 0.0879915 -0.0709822 -0.0800186 -0.0660112 -0.0559928 -0.0659889 0.0589926 -0.08399 0.0939851 0.0659957 0.0660045 -0.0130143 -0.0860305 0.0660185 -0.0220154 0.0830039 -0.0660043 0.0459961 0.0079951 0.0700084 0.0659903 -0.0780122 -0.0380188 -0.078 0.021 -0.09 -0.044 -0.007 0.023 0.047 0.025 0.082 -0.04 -0.055 -0.026 -0.063 -0.066 0.045 -0.086 0.02 -0.006 0.061 -0.038 -0.095 -0.099 -0.095 0.052 -0.04 -0.055 -0.052 0.045 0.097 0.089 -0.005 -0.047 -0.003 0.065 -0.046 -0.003 -0.063 0.016 -0.077 -0.028 0.003 0.076 0.008 -0.002 -0.041 0.093 0.014 0.057 0.004 0.091 0.026 0.083 -0.011 0.005 -0.006 0.018 -0.091 0.067 0.034 -0.075 -0.094 -0.065 0.039 0.06 0.086 -0.022 -0.048 -0.019 0.066 -0.05 0.041 -0.048 0.018 0.012 -0.019 -0.071 0.042 0.049 0.061 -0.036 -0.006 -0.083 -0.005 0.053 -0.045 -0.08 -0.08 -0.047 -0.081 -0.044 -0.026 0.062 -0.029 0.098 0.027 -0.06 -0.08 -0.047 0.065 0.023 -0.087 -0.009 0.091 -0.044 0.075 -0.005 0.024 -0.056 0.06 0.05 0.066 -0.078 -0.043 0.032 0.063 0.035 0.057 0.066 -0.091 -0.029 -0.05 -0.093 0.088 0.057 -0.027 0.026 0.041 0.066 0.092 0.012 0.016 0.027 -0.042 -0.063 0.096 0.096 0.078 0.086 -0.003 -0.001 -0.045 0.094 0.093 0.094 0.042 0.069 -0.043 -0.001 0.023 0.061 0.001 0 0.056 0.01 -0.093 -0.092 0.09 0.075 -0.069 -0.039 -0.006 -0.073 -0.073 0.027 -0.036 -0.002 0.007 0.064 0.008 0.008 0.057 -0.031 0.096 0.067 0.09 -0.005 -0.083 -0.039 0.042 -0.04 -0.04 0.043 -0.053 0.01 -0.009 -0.071 0.032 0.02 -0.081 0.088 -0.052 -0.065 -0.03 -0.002 0.088 -0.072 0.019 -0.093 0.056 0.093 -0.032 -0.073 -0.033 0.056 0.025 0 0.022 -0.053 -0.095 -0.008 -0.034 0.023 0.082 0.075 0.039 0.065 0.068 -0.069 0.013 -0.04 0.033 0.021 0.077 -0.006 -0.049 0.056 -0.066 -0.057 -0.061 -0.06 0.063 0.078 -0.034 0.099 0.099 -0.066 -0.032 0.078 0 0.093 0.057 -0.058 0.017 -0.006 0.012 0.002 -0.036 -0.016 0.006 0.015 -0.06 0.036 -0.008 0.082 -0.016 -0.012 0.042 0.058 0.062 0.081 -0.004 0.097 0.095 -0.015 -0.021 -0.004 0.04 0.066 0.031 -0.056 0.065 0.065 0.084 -0.002 -0.057 -0.007 -0.086 -0.035 0.031 -0.049 0.001 -0.046 -0.076 -0.008 0.064 -0.025 -0.083 -0.077 0.08 -0.068 0.083 -0.016 -0.048 0.041 0.073 -0.089 0.023 -0.078 -0.003 -0.09 -0.077 -0.003 -0.03 0.099 0.003 0.017 0.068 0.092 0.006 0.048 0.067 -0.007 -0.071 -0.03 0.045 0.059 0.042 0.077 0.033 -0.078 0.011 0.017 0.069 -0.048 0.06 -0.063 0.09 0.026 0.01 -0.039 -0.062 0.02 -0.015 -0.072 0.09 -0.055 0.077 0.075 -0.076 0.048 -0.09 -0.067 -0.023 -0.003 0.086 0.052 -0.041 -0.001 -0.004 0.091 -0.06 -0.026 -0.09 -0.007 -0.047 -0.083 0.028 -0.048 0.04 -0.009 0.065 -0.087 -0.076 0.053 -0.029 -0.043 0.071 -0.078 -0.088 0.002 0.068 -0.066 0.018 -0.001 -0.019 0.013 0.089 0.004 -0.019 -0.088 -0.095 0.043 0.047 -0.024 0.025 -0.092 0.097 -0.005 0.056 0.03 -0.034 -0.071 0.056 -0.036 -0.024 0.072 0.052 -0.08 -0.08 0.099 -0.067 0.012 -0.084 -0.058 0.087 0.077 -0.059 0.03 0.04 0.091 0.076 0.094 0.037 -0.085 -0.027 0.096 0.068 0.075 -0.083 -0.048 0.033 -0.027 -0.001 -0.095 0.035 0.052 -0.095 0.073 0.067 -0.063 0.074 -0.03 0.095 -0.033 -0.045 0.085 0.072 0.071 -0.096 -0.061 0.016 0.039 -0.097 0.078 -0.072 -0.058 -0.078 0.01 0.095 -0.077 0.054 0.002 0.094 -0.074 0.083 0.081 -0.07 -0.018 0.067 0.072 -0.038 -0.089 0.06 0 0.034 -0.075 -0.09 -0.09 0.005 0.043 0.064 0.098 0.075 0.023 0.051 0.077 -0.06 0.017 -0.07 -0.055 -0.027 0 0.069 -0.098 0.059 0.056 -0.01 0.013 0.082 0.066 -0.031 0.001 0.085 0.073 -0.094 -0.088 0.002 0.068 -0.071 -0.033 0.062 0.001 -0.085 0.017 -0.063 0.032 -0.053 0.013 0.007 -0.066 -0.082 0.002 0.098 -0.044 0.024 0.001 -0.04 -0.025 0.059 -0.07 -0.012 0.063 0.041 0.005 0.011 -0.084 0.058 -0.094 -0.023 -0.096 0.058 -0.076 0.006 -0.095 -0.043 -0.039 0.039 -0.072 0.096 0.071 -0.029 0.047 0.039 -0.015 0.042 0.007 -0.048 0.071 0.009 0.025 -0.068 0.055 -0.089 -0.055 0.023 -0.049 0.084 0.086 -0.022 -0.058 0 0.085 -0.062 0.022 0.001 -0.012 -0.019 -0.048 0.005 -0.09 0.081 0.095 0.011 0.047 -0.071 0 -0.017 -0.039 -0.023 -0.009 -0.002 -0.085 -0.007 0.035 0.012 -0.084 -0.095 -0.049 0.055 -0.041 0.009 -0.027 0.048 -0.043 -0.051 -0.096 0.079 0.006 -0.001 -0.081 -0.069 0.077 0.041 -0.035 0.099 -0.08 0.084 0.013 0.093 -0.071 -0.052 -0.099 0 0 0.092 0.064 -0.081 0.009 -0.022 0.089 0.004 -0.04 0.065 -0.012 0.026 -0.025 0.056 0.046 0.014 -0.096 0.065 -0.081 -0.056 0.016 0.098 -0.099 0.033 0.029 -0.016 0.061 0.024 -0.047 -0.019 -0.082 -0.005 -0.049 0.091 0.045 -0.045 -0.07 0.086 -0.002 0.095 0.055 0.02 -0.013 0.078 -0.003 0.086 0.065 -0.068 0.018 0.004 -0.079 -0.072 -0.007 -0.026 -0.08 -0.069 0.058 0.022 0.035 0.014 0.099 -0.092 -0.04 -0.036 -0.093 0.021 0.094 0.002 -0.096 -0.017 -0.003 0.076 -0.011 0.054 0.042 0 0.066 -0.034 0 0.016 -0.093 -0.024 -0.048 -0.075 -0.003 -0.016 -0.085 -0.012 -0.084 -0.007 0.004 0.081 -0.072 0.06 -0.015 -0.093 -0.042 -0.049 0.048 0.07 0.093 -0.067 -0.06 0.044 -0.014 0.061 0 -0.072 -0.017 0.013 0.079 -0.086 -0.024 0.087 -0.082 -0.04 -0.035 -0.073 -0.006 0.017 -0.038 0.057 -0.094 0.031 -0.065 -0.09 -0.027 -0.06 0.091 -0.091 0.09 0.013 0.023 0.062 -0.021 -0.046 0.054 -0.023 -0.098 0.087 0.012 0.082 0.014 0.019 0.027 0.001 0.092 0.024 0.055 0.019 0.084 -0.056 -0.068 -0.01 -0.008 0.054 0.034 -0.01 -0.074 0.084 -0.048 0.024 -0.081 0.093 0.02 -0.055 -0.078 0.007 -0.099 0.068 -0.024 0.087 -0.018 -0.002 0.042 -0.042 -0.088 0.038 -0.033 0.031 0.096 -0.009 -0.017 0.006 -0.089 -0.038 -0.069 -0.039 -0.029 -0.054 -0.05 -0.049 0.002 0.034 -0.072 -0.096 0.072 0.008 -0.021 -0.027 -0.005 0.058 -0.044 -0.034 0.083 0.086 -0.031 -0.053 -0.026 0.028 -0.061 0.08 -0.027 -0.091 0.009 0.069 0.063 0.021 -0.049 -0.065 -0.025 0.062 0.024 -0.099 0.055 -0.021 0.037 -0.007 -0.066 0.082 -0.006 0.024 0.07 -0.033 0.093 -0.022 -0.087 -0.098 0.046 0.097 -0.074 -0.059 0.079 0.069 0.017 -0.022 0.083 -0.02 0.054 0.047 -0.024 0.063 -0.092 0.054 0.049 -0.025 -0.091 0.071 -0.04 0.054 -0.067 0.061 -0.013 0.085 0.004 0.072 -0.065 -0.006 0.057 0.046 0.096 0.093 0.005 -0.038 0.079 0.082 -0.056 0.04 0.079 0.043 0.032 -0.09 -0.081 0.077 -0.017 0.003 -0.023 0.075 0.04 -0.086 -0.097 -0.009 -0.021 -0.043 -0.006 0.086 -0.073 0.007 0.007 0.026 -0.069 0.031 -0.007 0.078 0.045 0.061 -0.07 0.087 0.086 -0.039 -0.021 0.002 -0.02 0.038 -0.088 0.039 -0.001 0.091 0.032 0.041 -0.056 -0.086 0.009 0 -0.03 -0.01 -0.097 0.016 0.089 -0.018 -0.011 0.035 0.02 0.06 -0.09 -0.07 -0.036 0.068 0.007 0.001 -0.094 0.026 -0.046 -0.014 -0.087 0.097 -0.033 0.03 0.062 0.06 0.011 -0.068 0.038 0.001 0.091 0.004 -0.073 0.065 -0.019 0.049 0.046 0.038 -0.09 -0.072 -0.053 0.065 -0.07 -0.039 0.037 0.056 0.066 0.058 0.02 0.025 0.009 -0.042 -0.087 -0.089 -0.021 -0.077 0.038 0.062 -0.077 0.019 -0.002 0.021 0.007 0.044 0.015 -0.021 0.051 -0.075 -0.058 -0.046 -0.007 0.025 -0.06 0.09 -0.056 0.072 0.056 0 -0.003 -0.008 -0.089 -0.08 -0.05 -0.002 -0.094 -0.021 0.003 0.012 0.035 0.033 0.002 0.048 0.013 -0.01 0.064 -0.071 0.012 0.089 -0.069 -0.088 0.074 -0.038 0.098 0.053 -0.064 0.009 -0.005 -0.018 0.028 0.027 -0.055 -0.04 -0.08 -0.057 0.026 -0.059 -0.081 0.083 0.079 -0.089 0.065 -0.094 -0.013 -0.061 -0.061 -0.095 -0.056 0.005 0.056 0.05 -0.02 -0.016 0.034 -0.047 -0.047 -0.092 0.034 -0.072 0.023 -0.066 -0.081 -0.061 -0.045 0.029 0 0.003 0.031 -0.023 0.01 0.013 0.079 -0.02 -0.055 0.031 0.097 -0.008 -0.002 0.045 -0.029 -0.033 0.084 0.029 -0.003 -0.003 0.095 0.042 0.045 0.022 -0.06 -0.07 -0.097 -0.024 0.021 0.013 -0.016 -0.096 0.064 0.043 -0.08 -0.036 0.062 -0.066 -0.055 0.072 -0.061 0.093 -0.049 0.037 0.019 -0.063 0.01 0.019 -0.08 0.006 -0.006 0.096 0 -0.056 -0.011 -0.002 0.023 -0.013 0.079 0 0.058 -0.007 -0.015 -0.03 0.017 0.081 0.057 -0.04 -0.011 -0.093 -0.087 -0.068 0.088 0.082 0.077 -0.085 -0.016 0.094 -0.071 -0.012 0.009 0.077 -0.005 -0.091 -0.081 0.032 0.018 0.013 0.049 0.027 -0.037 0.055 -0.051 0.084 -0.046 0.006 0.045 -0.041 0.058 0.054 0.013 0.098 -0.039 -0.073 -0.019 -0.017 -0.046 0.098 -0.041 -0.04 -0.009 0.043 0.09 0.058 -0.088 0 0.054 -0.03 0.052 -0.077 0.02 -0.023 0.059 0.028 0.045 -0.035 -0.026 0.012 0.026 -0.06 0 0.083 -0.006 -0.001 0.092 0.041 -0.094 0.03 0.098 -0.046 0.067 0.048 0.03 0.092 0.087 0.014 -0.064 -0.019 0.048 0.063 0.055 0.008 0.063 0.025 0.014 0.079 -0.099 0 -0.054 0.088 0.052 0.029 -0.082 -0.081 0.08 0.039 0.041 0.075 0.033 0.041 -0.095 0.045 0.077 -0.05 0.06 -0.06 0.016 -0.088 0.056 0.029 0.046 -0.094 0.078 0.033 0.091 -0.046 0.089 0.016 0.057 0.003 0.082 0.059 -0.061 -0.084 -0.052 0.018 -0.074 -0.099 -0.098 -0.072 0.051 -0.08 -0.061 0.039 0.099 0.011 -0.026 0.046 -0.08 0.036 -0.025 -0.076 0.099 0.029 -0.028 -0.098 -0.041 0.052 0 -0.011 0.053 0.042 -0.028 0.015 -0.049 0.042 0.017 0.012 0.049 0.063 -0.097 0 0.043 0.018 0.012 -0.005 0.089 0.037 -0.09 -0.092 -0.003 0.065 0.019 -0.054 0.074 -0.061 -0.054 0.098 0.09 0.056 0.001 0.005 0.04 -0.055 0.055 -0.085 0.029 0.001 -0.015 -0.031 -0.01 -0.081 -0.074 0.088 -0.021 0.015 0.097 -0.043 0.074 -0.052 0.064 -0.086 -0.087 0.045 -0.076 -0.013 -0.032 0.012 -0.09 -0.018 -0.017 -0.072 -0.049 -0.068 -0.071 0.052 0.044 0.031 0.079 -0.059 0.098 -0.021 0.02 0.047 0.025 0.02 -0.034 0.069 -0.068 0.074 0.017 0.079 0.048 -0.044 -0.046 0.07 -0.039 -0.096 -0.031 -0.072 0.028 0.039 -0.099 -0.084 0.084 -0.075 -0.071 0.085 0.02 -0.061 0.071 0.035 -0.04 -0.056 0.097 -0.009 -0.002 -0.037 0.016 -0.091 0.089 -0.097 0.067 -0.026 -0.091 0.035 -0.044 0.012 0.072 -0.071 -0.053 0.045 0.012 0.055 0.062 -0.096 0.064 0.018 -0.013 -0.054 -0.054 0 -0.061 0.058 0.06 -0.023 -0.012 0.031 -0.009 0.09 -0.021 -0.074 0.081 -0.065 -0.059 0.021 0.056 0.074 -0.095 0.061 -0.055 0.05 0.026 -0.085 0.07 0.012 0.084 0.061 0.099 -0.009 0.09 0.044 0.07 -0.055 -0.022 -0.077 -0.063 -0.031 0.086 -0.058 0.063 0.083 -0.048 -0.097 -0.007 0.044 0.073 0.073 0.059 -0.093 -0.061 0.059 -0.016 -0.066 0.092 0.098 -0.079 0.073 0.089 0.081 0.08 -0.041 -0.041 0.089 -0.008 -0.05 0.041 -0.025 0.004 0.067 0.085 -0.021 0.035 -0.004 0.05 -0.019 -0.019 0.056 -0.041 0.073 -0.097 0.076 0.025 -0.029 0.036 -0.098 -0.049 -0.039 -0.034 0.015 0.087 -0.042 0.016 0.025 -0.091 -0.071 0.093 0.062 -0.09 -0.017 -0.018 0.003 -0.067 0.032 0.041 -0.093 -0.087 0.018 0.068 0.047 -0.097 -0.052 -0.056 0.015 -0.043 0.01 0.01 0.04 -0.012 0.044 -0.068 -0.004 0.016 -0.097 0.053 -0.078 -0.062 0.028 0.081 -0.025 0.086 -0.096 0.063 -0.067 -0.055 -0.054 0.063 0.063 0.094 -0.018 -0.064 0.024 0.006 -0.09 0.015 0.08 -0.026 0.05 0.018 0.061 0.006 0.003 -0.01 0.051 0.085 0.001 -0.002 -0.064 0.04 -0.037 0.081 0.051 0.01 0.007 -0.051 0.006 -0.071 -0.088 -0.025 -0.028 -0.086 -0.089 -0.081 -0.087 0.006 0.091 -0.087 0.082 -0.052 -0.021 -0.087 -0.025 0.091 0.057 -0.004 0.021 -0.055 -0.051 0.098 0.088 -0.011 0.028 -0.022 0.059 -0.059 0.041 -0.06 -0.05 0.007 0.049 -0.064 -0.07 -0.022 0.046 -0.07 0.068 0.059 0.053 0.056 0.003 -0.043 -0.034 0.028 -0.091 0.057 -0.065 0.031 0.088 -0.045 0.023 0.087 0.007 -0.022 0.09 -0.01 0.017 0.012 0.064 0.093 -0.057 0.079 -0.056 0.082 -0.027 0.082 -0.09 -0.031 0.084 0.004 0.058 -0.052 0.007 -0.074 0.085 0.041 -0.039 -0.076 -0.003 0.082 -0.046 0.055 0.01 0.06 0.027 0.01 -0.03 0.003 -0.017 0.07 -0.071 -0.006 -0.094 0.015 -0.01 -0.069 0.082 0.058 -0.004 -0.052 -0.033 0.038 0.037 -0.061 0.004 -0.07 -0.054 -0.006 0.029 -0.066 -0.068 -0.004 0.006 -0.042 0.051 0.062 0.042 -0.089 -0.036 -0.044 -0.064 -0.079 -0.027 -0.04 -0.05 0.096 0.061 -0.028 -0.035 -0.063 0.088 0.066 -0.065 -0.032 0.038 0.082 0.096 -0.002 -0.07 0.088 0.041 0.037 0.035 0.028 -0.092 -0.073 0.074 0.019 0.091 0.029 0.048 -0.057 0.045 -0.073 -0.022 0.082 -0.06 0.085 0.083 0.011 -0.006 0.092 0.094 -0.059 -0.08 0.013 -0.094 -0.064 -0.094 0.094 0.011 -0.034 -0.004 -0.04 0.032 0.031 0.081 -0.068 0.019 -0.073 -0.098 -0.081 -0.091 0.082 0 -0.099 -0.027 0.04 0.011 0.062 0.091 -0.091 0.053 0.086 0.033 0.024 -0.06 0.051 -0.073 -0.062 0.054 0.043 0.076 0.061 -0.047 -0.035 -0.075 0 -0.063 0.047 -0.088 0.004 0.077 -0.003 -0.012 -0.085 0.058 -0.062 0.002 0.006 0.023 -0.09 -0.087 -0.088 -0.01 0.049 -0.072 0.099 0.094 0.075 0.059 -0.081 0.038 -0.01 -0.026 0.04 0.015 -0.04 -0.007 -0.025 -0.011 0.097 -0.07 0.068 -0.07 -0.043 0.022 0.005 0.028 0.067 -0.04 0.066 0.049 -0.063 0.035 0.018 -0.008 0.018 -0.046 -0.052 0.061 0.013 0.089 -0.081 -0.055 0.006 0.017 -0.022 0.014 -0.024 -0.087 0.048 0.014 0.029 -0.081 -0.062 0.059 -0.048 -0.068 0.047 -0.079 -0.027 -0.011 0.093 -0.035 0.013 0.059 0.002 -0.006 0.073 -0.005 0.051 0.052 -0.066 0.079 -0.076 -0.06 0.081 -0.096 0.034 0.098 0.046 0.095 0.046 0.026 0.051 -0.064 -0.078 0.028 -0.076 -0.027 0.019 0.09 -0.049 0.054 -0.042 -0.061 -0.095 -0.059 -0.045 0.016 0.051 -0.052 0.044 0.075 0.045 -0.062 -0.03 0.093 0.03 -0.059 -0.02 -0.075 0.019 0.028 -0.077 0.083 -0.056 -0.079 0.057 -0.045 0.065 -0.021 -0.041 0.093 0.085 -0.093 0.081 -0.091 -0.006 0.092 0.062 0.098 0.034 -0.071 -0.064 0.09 -0.018 -0.021 -0.089 0.079 0.029 0.09 0.076 -0.063 0.001 -0.029 -0.087 -0.003 0.05 -0.07 -0.022 -0.095 0.074 0.06 -0.086 -0.005 0.039 0.065 0.098 0.006 0.004 0.061 0.021 0.033 -0.056 0.099 -0.094 -0.074 -0.097 0.056 -0.051 0.024 0.079 0.018 0.047 -0.036 0.038 0.062 -0.068 -0.024 -0.027 -0.03 -0.049 -0.076 0.04 0.036 0.077 -0.057 -0.036 0.061 0.062 0.001 0.088 -0.018 -0.007 0.012 -0.032 -0.019 -0.098 0.05 0.014 0.015 0.063 -0.086 -0.022 0.09 0.059 -0.081 0.057 0.071 -0.094 0.097 0.063 0.07 0.026 0.075 -0.088 -0.055 -0.05 -0.097 0.043 0.085 -0.028 -0.056 0.01 0.004 0.022 -0.099 -0.035 0.093 -0.062 0.086 0.099 0.021 -0.005 0.056 -0.038 0.094 -0.002 0.034 -0.053 0.059 -0.026 0.08 0.082 -0.03 0.025 -0.091 -0.043 -0.097 0.057 0.016 -0.061 -0.064 0.067 0.006 0.002 -0.016 0.067 -0.004 -0.095 0.077 0.071 0.076 -0.059 0.074 -0.003 -0.061 -0.01 0.08 0.024 0.03 -0.019 -0.074 -0.032 0.056 0.042 0.084 0.075 0.072 -0.007 0.055 0.054 -0.059 0.061 -0.058 -0.015 -0.097 -0.084 0.025 0.082 -0.082 0.072 -0.068 0.015 0 0.059 0.016 0.022 0.031 -0.003 -0.059 -0.081 0.024 -0.097 -0.031 0.082 0.082 -0.047 -0.028 -0.062 -0.004 0.071 0.079 -0.019 0.093 0.074 0.047 0.063 0.05 -0.038 0.031 0.054 -0.084 -0.08 0.098 -0.056 -0.087 -0.083 0.065 0.053 0.048 -0.063 0.061 0.031 -0.008 0.035 -0.039 0.028 -0.067 -0.004 0.054 -0.001 0.009 0.079 0.009 0.032 -0.057 0.075 0.05 -0.023 -0.017 0 0.072 -0.094 -0.007 0.026 -0.081 0.069 0.088 0.064 0.049 0 -0.071 -0.025 0.065 -0.078 -0.026 0.094 0.025 0.042 -0.001 0.073 -0.003 0.029 -0.029 -0.088 -0.065 0.061 0.003 0.016 -0.003 0.027 0.034 -0.059 -0.031 -0.063 -0.005 0.023 -0.051 0.047 -0.099 0.085 0.014 -0.023 0.016 -0.066 0.031 0.008 -0.038 -0.053 -0.097 0.077 0.062 0.067 0.065 0.092 0.051 0.005 -0.056 -0.055 0.003 0.074 0.026 -0.02 0.022 -0.05 0.008 0.003 0.077 -0.076 -0.091 -0.065 -0.036 -0.046 0.026 -0.027 0.044 -0.02 -0.04 -0.063 -0.025 0.04 0.083 -0.099 -0.073 0.076 0.015 0.096 -0.052 0.054 0.001 -0.077 0.046 -0.067 -0.092 -0.033 0.08 0.062 0.055 -0.08 0.071 -0.07 0.065 -0.015 0.095 0.095 -0.064 0.071 -0.001 -0.097 0.051 0.062 -0.01 0.035 -0.06 0.03 -0.01 -0.078 -0.042 -0.02 0.018 -0.08 -0.072 -0.043 -0.035 0.037 0.052 0.078 -0.096 -0.097 0.041 -0.001 -0.072 -0.089 -0.041 -0.061 0.069 -0.024 0.059 -0.085 0.032 -0.076 0.077 -0.074 -0.099 -0.051 0.042 0.098 0.068 -0.056 -0.068 0.023 0.037 -0.093 0.085 -0.09 -0.008 -0.042 -0.019 0.071 0.077 0.049 0.063 -0.05 0.035 -0.064 0.099 0.029 -0.078 -0.023 0.052 -0.04 0.038 -0.011 -0.097 -0.007 -0.079 0.036 0.049 0.08 -0.087 -0.011 -0.025 -0.058 -0.035 0.069 0.02 0.051 0.082 0.082 -0.069 0.091 -0.005 -0.015 -0.077 -0.083 0.093 -0.037 0.002 -0.015 -0.028 -0.055 -0.053 0.096 -0.045 0 -0.092 -0.023 -0.003 -0.071 -0.057 0.012 0.097 0.085 -0.022 0.096 0.098 0.087 0.011 0.039 0.017 -0.045 0.091 0.058 0.069 -0.023 0.034 0.042 -0.064 -0.076 -0.073 -0.052 -0.099 -0.07 -0.054 0.099 0.035 0.072 -0.052 0.013 0.015 -0.001 0.085 -0.038 0.04 0.034 -0.011 0.059 0.068 0.087 0.074 0.089 -0.02 -0.014 0.065 0.091 -0.006 0.074 -0.017 0.092 0.019 -0.062 0.088 -0.018 -0.057 -0.096 0.063 -0.044 0.038 0.006 0.049 0.057 0.08 0.052 -0.069 -0.083 -0.044 0.032 -0.092 -0.021 0.003 -0.025 0.041 -0.025 0.011 0.061 0.055 0.027 0.034 -0.019 -0.083 0.083 0.074 0.062 0.007 0.047 -0.02 -0.047 0.068 0.079 -0.07 -0.063 0.069 -0.08 -0.009 0.034 0.062 0.022 0.051 -0.037 -0.018 -0.037 0.01 -0.006 -0.029 -0.083 0.099 -0.039 0.006 -0.016 0.027 -0.094 -0.078 -0.049 -0.066 -0.055 -0.039 -0.087 -0.019 -0.021 0.078 -0.033 0.093 -0.021 -0.018 0.029 0.03 0.039 0.067 -0.079 -0.023 -0.088 -0.088 -0.016 0.081 0.085 0 -0.084 -0.07 -0.05 0.017 0.096 -0.073 0.016 0.097 -0.042 -0.078 0.012 -0.075 -0.068 -0.039 0.097 -0.048 0.017 -0.057 0.074 0.083 0.06 0.023 0.077 -0.036 -0.03 0.035 0.078 0.018 -0.012 0.056 -0.066 -0.005 -0.067 -0.098 0.016 0.064 -0.051 0.038 -0.051 0.084 -0.092 -0.078 -0.059 -0.04 -0.078 0.007 -0.054 -0.095 0.057 -0.069 0.004 -0.021 -0.017 -0.074 0.005 0.068 -0.047 0.013 0.044 -0.099 0.096 -0.041 0.009 -0.052 -0.075 0.072 0.047 0.083 -0.012 0.053 -0.099 0.053 0.022 -0.055 0.016 -0.066 0.054 0.064 -0.085 0.047 -0.01 -0.034 -0.07 0.005 -0.023 0.073 0.094 0.099 0.003 0.019 -0.051 -0.068 0.008 0.047 0.094 0.043 0.035 -0.039 0.011 0.046 0.098 -0.089 -0.055 0.088 0.074 0.058 0.088 0.094 0.098 0.098 0.047 -0.033 0.01 0.046 -0.015 0.054 -0.037 0.034 -0.04 0.017 -0.032 -0.067 0.037 -0.023 -0.048 0.071 0.09 -0.029 0.072 0.087 -0.087 0.007 -0.084 -0.044 -0.079 -0.017 -0.055 -0.051 -0.069 0.025 0.094 0.023 0.098 -0.002 -0.075 0.067 -0.065 -0.098 0.004 0.066 -0.062 -0.098 -0.041 -0.086 0.088 -0.089 -0.093 0.089 0.015 -0.081 -0.089 0.002 -0.087 0.018 0.007 -0.085 0.015 -0.004 0.032 -0.019 0.099 -0.037 -0.043 0.071 -0.014 -0.049 0 0.012 0.024 -0.013 0.054 -0.096 -0.029 -0.032 0.09 -0.078 -0.004 0.073 0.065 -0.053 0.033 0.051 0.01 0.055 -0.075 0.083 -0.054 0.064 0.059 -0.002 0.058 0.06 0.072 0.096 -0.06 0.02 0.081 -0.086 0.034 -0.07 0.078 0.025 -0.065 0.032 0.027 0.061 -0.091 -0.037 0.003 0.063 -0.042 -0.036 -0.026 0.079 0.04 0.099 0.064 -0.055 -0.029 -0.081 -0.02 0.01 -0.099 0.056 -0.03 0.017 0.077 0.068 -0.041 -0.078 0.007 -0.09 0.033 -0.08 0 -0.034 0.026 -0.076 -0.037 -0.07 0.051 0.099 -0.08 0.061 0.06 -0.086 -0.001 0.068 0.017 0.001 0.084 -0.088 0.061 -0.044 -0.009 0.006 -0.032 -0.033 -0.078 -0.03 0.085 0.068 0.001 -0.033 0.012 -0.005 0.004 0.047 -0.045 -0.022 0.003 0.001 -0.067 -0.038 0.053 0 -0.05 0.075 -0.035 -0.02 -0.014 -0.073 -0.059 -0.054 0.058 0.073 -0.023 -0.086 -0.023 -0.064 -0.034 -0.053 0.02 -0.079 -0.01 0.051 0.076 -0.071 0.062 0.052 0.021 0.085 -0.071 -0.083 -0.087 0.055 -0.073 0.061 0.002 -0.03 -0.022 0.051 0.075 0.007 -0.062 -0.007 -0.079 0.025 -0.054 -0.02 -0.019 0.05 -0.029 0.001 0.046 -0.058 -0.049 -0.007 -0.022 -0.015 -0.055 -0.004 0.083 -0.092 -0.071 0.02 0.034 0.025 0.021 0.007 -0.035 -0.056 -0.095 -0.009 0.092 -0.031 0.048 0.053 -0.028 0.084 0.063 0.075 0.069 0.036 -0.077 -0.038 -0.01 -0.064 0.031 0.083 0.086 -0.099 0.054 0 0.067 0.05 0.041 -0.009 -0.087 -0.055 0.099 0.022 -0.099 -0.039 0.042 0.051 0.059 0.051 0.028 -0.055 0.039 0.019 -0.058 -0.01 0.005 -0.07 -0.06 -0.019 -0.057 -0.083 -0.015 -0.035 -0.028 0 0.099 -0.028 -0.013 0.037 0.073 -0.034 0.003 -0.085 0.011 0.021 -0.097 -0.05 0.014 -0.089 0.096 -0.04 -0.071 0.025 -0.045 0.098 -0.019 -0.001 0.076 0.021 -0.042 0.052 0.018 -0.042 0.013 0.067 0.092 0.08 -0.019 0.056 -0.082 0.012 -0.04 0.063 0.053 -0.076 -0.081 0.037 0.049 -0.045 -0.086 0.087 0.003 0.049 0.028 -0.092 0.029 0.005 0.015 -0.041 0.013 0.003 -0.001 -0.094 -0.038 -0.026 -0.053 0.035 -0.075 -0.053 -0.089 -0.004 0.013 0.02 0.033 -0.081 0.061 -0.035 -0.014 -0.048 0.059 -0.064 -0.007 -0.026 -0.069 0.018 0.035 0.098 -0.023 -0.077 0.025 0.036 0.028 0.019 -0.003 0.052 -0.011 -0.061 -0.048 0.076 0.015 0.014 -0.07 -0.009 -0.034 0.051 0.06 0.055 -0.067 -0.018 0.097 0.024 0.016 0.096 -0.083 -0.001 0.061 -0.031 -0.041 -0.073 0.047 0.064 0.049 -0.016 -0.09 0.082 0.095 -0.082 0.087 -0.065 -0.092 -0.013 0.078 0.008 0.036 -0.09 -0.085 -0.019 -0.045 -0.001 0.096 0.002 -0.038 -0.076 -0.091 -0.012 0.065 0.092 -0.031 0.029 0.048 -0.028 -0.065 -0.036 -0.072 0.078 0.025 0.073 0.092 0.025 0.001 -0.063 0.05 -0.04 -0.029 0.081 -0.084 0.059 -0.016 0.029 0.055 0.051 -0.077 -0.057 0.04 0.072 0.004 0.025 -0.064 0.016 -0.094 -0.042 0.056 0.03 0.077 -0.056 -0.045 -0.023 -0.033 0.018 -0.07 0.073 0.05 -0.025 0.076 0.027 -0.091 -0.048 -0.009 -0.031 -0.052 -0.003 -0.066 0.024 -0.085 0.027 0.029 0.096 -0.077 0.015 -0.095 0.066 0.068 0.022 0.003 0.073 0.089 0.087 -0.093 0.008 -0.005 0.092 0.093 0.06 -0.042 0.02 0.094 -0.017 -0.089 -0.029 0.067 0.025 -0.053 0.007 0.068 0.087 0.018 0.003 0.042 0.049 -0.086 -0.04 0.015 -0.051 -0.003 0.041 0.095 -0.078 0.09 -0.029 -0.062 -0.03 -0.058 0.045 0.084 -0.032 0.059 -0.078 0.028 0.037 0.004 -0.069 0.013 -0.017 -0.098 -0.065 0.047 0.097 0.082 0.057 0.027 0.005 -0.003 -0.051 0.071 0.058 0.069 0.066 -0.079 0.014 0.083 0.064 -0.028 0.071 0.09 0.041 -0.047 0.051 0 -0.01 -0.014 -0.063 0.095 0.059 0.083 0 -0.011 0.018 -0.003 -0.061 -0.003 -0.045 0.084 -0.083 -0.052 0.052 0.06 0.056 -0.088 -0.048 -0.048 0.095 0.052 0.026 -0.045 -0.062 0.019 0.09 0.043 0.033 -0.01 -0.012 -0.008 0.06 -0.041 -0.075 -0.062 -0.08 -0.036 -0.024 0.086 -0.067 0.056 -0.072 -0.094 -0.056 -0.005 -0.031 0.06 -0.028 -0.063 -0.022 -0.013 -0.023 -0.066 0.062 0.027 -0.019 -0.076 0.058 -0.042 0.068 0.087 0.061 0.015 -0.067 0.041 0.045 -0.052 -0.083 -0.034 -0.025 -0.03 -0.023 0.097 0.093 0.024 0.042 0.019 0.057 0.069 -0.077 0.046 0.073 -0.033 -0.081 0.044 -0.04 -0.097 0.039 0.014 -0.06 0.07 -0.074 0.013 -0.052 -0.022 -0.048 0.036 -0.078 0.008 -0.021 0.016 0.077 0.086 0.086 -0.07 -0.048 -0.086 -0.083 0.065 -0.017 0.002 -0.058 -0.078 0.035 -0.091 0.002 0.086 0.008 0.031 -0.095 -0.056 -0.035 0.078 0.019 0.065 -0.069 0.011 -0.024 -0.064 -0.099 0.048 0.006 0.086 0.023 0.027 -0.032 -0.025 0.048 -0.062 0.067 0.047 0.02 0.036 0.01 0.059 0.044 -0.005 0.044 0.099 -0.089 0.044 -0.005 -0.031 0.023 -0.06 -0.086 0.092 0.077 -0.085 -0.083 0.018 -0.042 -0.074 0.016 0.046 0.055 -0.07 -0.09 0.029 0.091 0.088 -0.03 -0.067 0.001 0.033 -0.046 -0.081 -0.006 -0.053 -0.055 0.096 -0.08 -0.043 -0.043 -0.079 -0.012 0.017 0.076 -0.081 0.017 0.08 -0.076 -0.029 0.01 0.058 -0.007 -0.096 -0.052 -0.055 0.004 0.083 0.014 -0.011 -0.077 0.082 -0.079 -0.084 0.006 -0.049 -0.068 0.033 0.07 0.063 -0.095 -0.063 0.093 -0.014 -0.057 0.091 -0.039 -0.093 0.077 -0.09 0.048 -0.006 0.054 -0.009 -0.054 -0.093 -0.097 -0.007 0.047 0.091 0.065 0.037 0.08 0.043 -0.065 0.073 -0.03 0.036 0.01 -0.01 -0.089 0.085 -0.078 0.054 -0.052 -0.068 0.098 0.016 -0.038 -0.071 -0.097 -0.027 0.029 0.046 -0.01 -0.017 0.017 -0.079 0.09 0.029 0.077 -0.009 0.044 -0.089 -0.063 -0.022 -0.056 0.004 0.003 -0.089 0.06 -0.002 -0.032 -0.092 -0.054 -0.047 -0.039 -0.019 -0.059 0.004 0.022 0.079 -0.029 -0.049 -0.062 0.088 0.031 -0.06 0.041 0.012 0.052 -0.013 0.036 -0.01 -0.032 0.036 -0.03 0.003 0.098 -0.062 0.096 -0.076 -0.095 0.076 0.067 0.034 0.065 -0.022 -0.086 -0.033 0.081 0.049 -0.053 0.062 -0.046 0.034 0.011 0.093 0.02 -0.093 0.084 0.031 0.046 0.031 0.084 0.049 0.06 -0.032 0.038 0.059 0.089 -0.082 -0.029 0.018 0.01 0.08 0.047 -0.079 0.005 0.047 -0.009 0.057 -0.019 -0.097 0.081 -0.079 -0.071 0.045 0.088 -0.071 0.097 -0.028 -0.024 -0.029 -0.024 -0.04 -0.091 -0.098 -0.012 0.015 0.026 -0.009 -0.04 -0.052 -0.007 -0.013 0.081 -0.05 0.071 0.005 0.081 -0.067 0.019 0.049 -0.047 -0.069 0.078 -0.04 -0.022 -0.022 -0.08 0.03 0.054 0.088 -0.076 -0.054 -0.046 0.019 -0.077 0.084 0.008 0.05 -0.089 0.016 0.004 -0.017 0.047 -0.072 0.035 -0.028 0.082 -0.054 0.049 0.033 0.068 -0.028 -0.075 -0.097 0.019 0.01 -0.03 -0.024 0.099 0.04 -0.082 -0.021 -0.002 -0.021 0.04 -0.007 0.095 0.061 -0.08 0.051 -0.052 -0.063 0.027 0.095 -0.055 -0.06 0.07 -0.016 0.057 -0.031 -0.073 0.049 0.034 0.095 0.046 -0.098 -0.047 -0.084 -0.044 -0.058 0.084 -0.061 0.068 0.046 0.01 0.023 -0.027 0.047 0.039 0.074 -0.085 -0.047 -0.036 0.011 -0.02 0.061 -0.022 -0.004 0.003 0.089 0.03 0.039 -0.004 0.073 0.031 0.006 0.071 0.019 -0.024 0.018 0.056 0 0.048 -0.015 -0.056 0.074 0.092 -0.015 -0.064 -0.047 0.013 -0.003 -0.029 0.016 -0.027 -0.039 0.039 0.087 -0.015 0.084 0.035 -0.014 0.049 -0.021 -0.025 -0.006 0.023 -0.037 -0.014 0.024 -0.096 -0.048 0.046 0.083 -0.082 -0.07 -0.071 -0.068 0.057 -0.026 0.024 0 -0.041 0.048 0.031 0.078 -0.06 0.012 0.017 -0.094 0.049 0.028 0.016 -0.043 -0.015 -0.066 -0.064 -0.03 0.056 0.076 0.019 -0.093 0.023 -0.098 0.075 -0.082 0.062 0.08 -0.02 0.001 0.028 -0.009 0.098 -0.045 -0.096 0.026 0.032 0.071 -0.092 -0.008 -0.072 -0.085 0.031 0.013 -0.048 0.013 -0.075 0.088 -0.073 0.012 0.028 0.032 0.018 -0.091 0.051 -0.073 -0.085 0.061 -0.048 0.079 0.063 -0.003 0.045 -0.033 0.091 -0.042 0.096 0.099 0.05 -0.053 -0.089 -0.025 -0.01 0.081 -0.042 0.066 -0.047 0.007 -0.097 0.01 -0.08 -0.033 -0.086 -0.028 -0.056 -0.033 0.074 0.06 -0.07 0.032 0.017 -0.022 -0.04 0.081 0 0.013 0.025 0.064 -0.052 0.086 0.023 0.095 0.041 0.042 -0.014 0.084 -0.084 0.099 -0.043 0.061 0.03 0.04 -0.07 0.094 -0.004 -0.096 0.083 0.071 -0.031 0.01 -0.024 0.027 0.077 -0.012 -0.031 0.034 0.018 0.01 0.069 -0.081 0.016 0.074 -0.021 0.083 -0.056 0.053 0.084 -0.008 0.073 -0.058 -0.059 0.037 -0.006 -0.038 -0.012 -0.097 0.017 -0.082 0.053 0.038 -0.075 0.095 -0.048 -0.056 0.065 -0.085 0.029 0.07 0.03 0.033 0.099 0.025 -0.038 0.072 0.004 0.036 -0.013 0.013 -0.016 0.082 0.066 -0.023 -0.038 -0.069 -0.049 0 0.086 -0.093 -0.073 -0.047 0.044 -0.052 -0.095 0.039 0 0.096 -0.021 -0.021 -0.068 -0.016 0.019 0.035 -0.014 0.07 0.085 0.071 0.03 -0.034 0.043 -0.096 0 0.09 0.072 -0.022 0.048 0.061 0.028 0.021 -0.001 -0.064 -0.098 -0.034 0.035 0.008 -0.047 -0.001 -0.06 0.057 -0.097 -0.092 -0.091 -0.096 0 0.07 -0.084 0.059 -0.072 0.045 0.009 -0.067 0.093 0.089 -0.009 -0.001 -0.07 -0.055 -0.091 0.09 -0.087 -0.015 0.019 -0.074 0.064 -0.007 0.09 -0.018 0.003 -0.057 0.057 -0.065 -0.097 0.024 0.026 0.019 0.041 -0.048 0.039 -0.009 0.064 -0.046 0.029 0.002 0.06 0.093 0.029 0.066 -0.053 -0.039 -0.087 -0.094 -0.083 0.048 0.026 -0.001 -0.061 -0.078 -0.025 0.042 0.083 -0.004 -0.034 -0.095 -0.042 -0.027 -0.049 -0.04 0.095 -0.024 -0.082 -0.062 0.043 -0.012 0.028 0.096 0.09 -0.027 0.03 0.053 0.099 0.041 0.07 -0.052 0.026 0.036 -0.021 -0.043 -0.031 -0.043 0.069 0.028 -0.028 -0.085 0.023 -0.076 0.03 0.024 -0.021 -0.035 0.093 -0.071 -0.041 0.072 0.075 0.097 -0.096 0.048 0.045 -0.026 0 -0.079 -0.07 0.077 0.058 -0.064 0.042 -0.073 0.021 0.015 0.029 0.083 0.005 0.069 0.089 -0.092 -0.032 0.082 -0.019 0.092 0.017 0.06 -0.087 0.011 0.056 -0.046 0.075 -0.039 -0.072 -0.081 0.04 -0.045 -0.009 0.046 -0.077 0.048 0.086 0.047 0.006 -0.009 0.024 0.045 -0.093 -0.061 0.012 0.074 -0.037 -0.062 0.039 -0.009 -0.021 0.065 -0.024 -0.045 0.018 -0.052 -0.037 0.008 -0.061 -0.012 -0.098 0.072 0.049 -0.043 -0.004 0.081 0.004 -0.006 0.031 -0.079 -0.011 -0.048 0.049 -0.089 0.017 -0.053 0.05 -0.072 -0.081 -0.088 -0.058 -0.054 -0.021 -0.042 0.049 0.016 -0.083 0.004 0.019 -0.056 0.064 0.057 -0.084 0.051 0.06 0.009 0.024 -0.025 -0.079 -0.055 -0.034 0 0.023 -0.092 0.056 0.016 -0.088 0.046 0.061 -0.018 -0.034 -0.006 -0.031 0.056 -0.083 0.074 -0.046 -0.003 0.011 -0.036 -0.046 0.017 -0.038 0.093 0.077 -0.043 -0.045 0.091 0.087 0.072 0.056 -0.048 0.055 0.097 0.014 -0.04 0.081 0.067 -0.017 -0.087 0.007 -0.068 0.09 -0.029 -0.003 -0.034 0.083 0.071 0.004 -0.054 -0.092 -0.057 0.025 -0.074 0.053 -0.062 0.064 -0.027 0.092 0.062 0.063 -0.033 0.036 -0.089 -0.075 -0.078 0.062 0.057 0.052 -0.046 0.032 -0.072 0.035 0.094 0.061 0.051 0.097 0.092 0.046 -0.06 -0.028 0.005 0 -0.057 -0.077 -0.092 -0.064 0.052 -0.081 -0.068 -0.033 -0.041 -0.002 -0.001 0.002 -0.03 -0.029 0.003 0.001 0.026 0.086 0.082 -0.081 0.017 0.037 0.084 0.037 -0.086 -0.057 -0.015 -0.047 0.086 0.079 -0.041 -0.09 0.078 -0.008 0.053 0.008 0.069 0.08 0.076 -0.057 -0.064 -0.008 -0.022 -0.086 0.072 -0.097 0.081 0.011 -0.015 0.078 0.01 -0.093 -0.087 -0.094 0.043 0 0.029 0.043 -0.074 0.078 0.04 0.064 -0.092 0.003 0.08 -0.072 0.055 -0.007 -0.035 -0.034 0.049 -0.099 0.087 0.095 0.023 -0.04 -0.065 -0.079 0.071 -0.09 -0.004 -0.076 -0.09 0.046 0.061 0.032 0.026 0.009 -0.093 -0.032 0.021 0.047 -0.033 -0.04 0.012 -0.061 -0.001 -0.044 0.081 0.032 -0.025 0.062 -0.002 -0.043 0.046 0.033 0.016 -0.064 0.048 -0.023 -0.081 0.088 -0.062 -0.076 -0.062 -0.0709969 -0.0649526 0.0370215 0.0719689 -0.00400036 -0.0819447 -0.0239725 -0.0470002 -0.0600973 0.0129384 0.0369772 -0.0380346 -0.0670844 -0.0769914 -0.0950181 0.0350001 -0.0910401 -0.0319488 0.0959362 -0.0249793 0.0300288 0.0729863 -0.060968 0.0749732 -0.00199022 -0.0979572 0.0710463 -0.000159867 0.0719808 -0.0580417 0.0140305 0.0809635 -0.0289805 -0.052971 -0.0330612 0.0539754 -0.0760233 0.0710412 -0.0710488 -0.0849807 -0.0940206 -0.00888349 -0.0450836 0.0890181 -0.0529872 0.0770063 -0.0140224 -0.0560051 0.00909858 0.0640584 -0.0769528 0.0660186 -0.0739765 -0.0830157 -0.00298287 0.0720515 -0.0320167 -0.0509949 0.049975 0.00999892 -0.0659811 -0.0550199 -0.0229866 -0.0689874 -0.00401549 0.0739676 0.0169691 0.0620003 -0.0720423 -0.0909863 0.0310219 -0.0209947 -0.064986 0.0349925 0.0420035 -0.0900758 0.0829659 -0.0979849 0.0690144 -0.0840405 0.0679588 -0.0310283 0.0430444 -0.0330211 -0.0659573 -0.0469639 -0.0369198 -0.0069634 -0.0550133 -0.0139654 0.076958 0.0820381 0.0920397 -0.0460426 -0.0440431 -0.0519978 0.00698053 0.0579668 -0.0450614 -0.0919717 -0.036951 -0.0160753 0.0909619 0.0630373 -0.0160088 0.0479753 0.0429982 -0.0619975 0.0650168 0.0150728 -0.00799365 -0.0859996 -0.0390341 -0.0520171 -0.040993 -0.0780519 -0.0109724 0.0340221 0.0389794 -0.0129995 -0.00599565 -0.004032 0.0599793 0.0969799 -0.0869976 -0.0590136 -0.0850733 0.0889997 0.00200085 0.0160047 0.0209991 -0.0199642 -0.0650076 0.0759628 0.019909 0.0359562 -0.0389638 0.0219991 -0.0159852 0.0120004 -0.0920514 -0.0809999 -0.0309899 0.0860413 0.078008 0.0949621 0.0680439 -0.00602303 0.0280203 -0.0949916 0.00493344 -0.00403262 -0.0380028 0.0190634 0.0279949 -0.0539497 -0.0969945 -0.0790361 -0.002988 -0.0280008 -0.0369749 -0.00799057 0.0659984 0.0749562 -0.0700003 0.0459867 -0.0679789 -0.0139681 -0.0779891 -0.0830043 0.0780173 0.0960538 0.00296444 -0.0019681 0.0190231 0.0879354 -0.0259943 -0.0479683 -0.0339871 0.0309757 0.0529787 -0.0300047 -0.0799788 0.0180297 0.0170096 -0.00895566 -0.0189865 0.033002 0.0250162 -0.0330248 -0.0359661 0.0979234 -0.0770505 -0.0150592 0.0859806 -0.0990566 -0.046914 0.0500441 -0.0090214 0.0910281 -0.094009 -0.00198407 -0.0639913 0.0859543 0.0579625 -1.51232e-05 0.0710741 0.0129634 -0.0699868 -0.0480522 -0.00502656 -0.0269988 -0.0420434 0.0229654 0.0910111 0.00197273 -0.0970236 0.0739897 0.0269731 0.066907 -0.0839547 0.0369419 0.00999911 0.0770806 -0.0689278 0.0639669 0.00297173 -0.0860625 -0.00901047 -0.0689742 0.0260207 0.0750059 0.0298614 0.0069723 0.090043 0.0749407 -0.0980154 -0.0820151 0.0350391 0.0640089 -0.0179856 0.0819682 0.0920109 0.0769803 8.38327e-06 -0.0790311 0.0820771 0.0249707 0.0449766 -0.0279904 -0.0639798 0.0709049 -0.0750047 0.0509384 0.065004 0.0309601 -0.0989487 0.0236406 0.0171587 0.0802485 -0.0580159 -0.0200079 -0.0226014 0.0779941 -0.00223603 -0.0274415 -0.0351431 0.0430283 -0.00558954 -0.0105977 0.0959767 0.0579171 0.0157943 -0.0930326 -0.0533036 -0.0761411 0.0144637 -0.0138912 -0.068047 -0.0825914 -0.00443494 0.0862578 0.0433587 0.0744056 0.0581391 0.0206046 -0.0342736 0.0149863 -0.0149284 0.0955607 -0.0503917 -0.049289 0.0597328 0.087269 -0.0826565 0.0521427 0.079707 0.0573041 0.0825474 -0.0440504 0.0317499 -0.0797022 -0.0493111 -0.0621288 0.0493127 -0.0877762 -0.0293825 0.0801273 -0.0238705 0.0321098 -0.0670274 0.0407895 -0.052916 0.00123127 -0.0945226 0.0710507 0.0592238 0.0929391 0.0908218 0.0186571 0.0272181 0.0942052 -0.0587724 0.034036 0.0357243 -0.0503308 -0.000765342 -0.00694599 -0.0800512 -0.0385316 0.0380848 0.0818434 -0.0278149 0.0417702 0.0747665 -0.0573746 0.0947655 0.00955978 -0.090611 0.0929626 -0.00165263 -0.0630674 0.0102745 -0.00102535 -0.0377111 0.0717851 -0.0613803 0.0938431 0.0290791 0.0626759 0.0682739 0.0950801 0.0919549 0.0441576 0.0699068 -0.0514485 0.036553 0.0327625 0.0288878 -0.053896 -0.0635148 -0.00234791 0.0796542 0.0101256 0.0939779 -0.0381203 0.0782045 -0.0399568 0.0941319 0.0339507 -0.0165648 0.0212134 -0.0784576 0.0901308 -0.0502052 0.0442079 -0.00764625 0.0333637 0.018768 0.00680659 0.0621656 0.0112211 0.00269608 0.0119325 0.0931871 -0.0157887 0.0710352 -0.0649425 -0.0724154 -0.0488237 0.0199206 0.0226023 -0.0298224 0.00793673 -0.0512954 0.0749385 -0.0878407 -0.0149649 -0.0794582 -0.0066734 0.0453636 -0.0940259 -0.0716272 0.0899772 0.00805065 -0.0654782 0.01128 -0.0785518 0.0658858 0.0913393 -0.00731672 0.0757788 0.080375 0.020964 0.0515419 0.0490748 -0.0545666 -0.0304914 -0.0162195 -0.0564721 0.0959307 0.000162161 -0.0608149 0.0606747 -0.0143176 0.0439061 0.0430484 0.0589069 -0.0877062 0.078922 -0.0827449 -0.102491 0.0651966 0.0976197 0.082456 0.0965975 0.0838835 0.0058153 -0.00194533 -0.073427 0.0585142 -0.00360752 -0.0673689 0.0186437 0.0770757 0.0736729 0.0608535 0.00275044 -0.0267634 0.0536016 0.0459121 -0.0811034 -0.0944029 0.0702542 0.0958359 0.0494885 -0.0165743 0.0758989 -0.0895751 0.0743826 -0.0222174 0.0902395 0.051028 -0.00107978 0.09069 0.0741093 -0.0449337 0.0329746 -0.0344211 -0.0409476 0.0975056 -0.0536723 0.0145391 0.0473682 0.0344059 0.0549856 -0.0274161 -0.0261515 -0.0441923 0.0335625 -0.0908938 -0.0537602 0.0263731 -0.0206106 0.0906385 0.0364889 0.0779792 -0.00574056 -0.102587 -0.020501 0.0914851 0.0427103 -0.0929437 0.072429 -0.0699416 -0.0866615 -0.0413006 0.0121027 0.0124219 0.0639179 -0.049606 -0.00979606 -0.0929495 -0.047562 -0.0942518 -0.0534815 0.058195 0.0598716 -0.00626353 -0.0423499 0.00524527 -0.0853435 -0.0562278 -0.0617305 0.0671807 0.0938037 0.0389454 -0.0799491 -0.0212375 -0.0248712 -0.022213 0.0349683 0.0218418 -0.0808142 -0.0642341 -0.0784097 0.0429916 -0.0244907 -0.000201673 -0.0159102 0.00961134 -0.0884557 0.0770723 0.0181389 0.0448146 -0.0859831 0.0863781 0.0695614 -0.0104409 -0.101016 -0.0855903 -0.0238119 -0.0775133 -0.0748935 0.021015 0.0639633 -0.0425691 -0.0966441 0.0594472 -0.0676107 -0.0841638 -0.0947699 -0.00252272 -0.0604716 0.00524392 0.0188111 -0.0525106 0.042001 -0.0176625 -0.0891416 0.103459 -0.0526969 -0.0519039 0.022145 0.0489669 -0.000997095 0.0409482 0.0773544 0.0812095 -0.0714076 -0.0482046 -0.0966787 -0.0588863 0.0808751 0.0897713 0.0862619 0.0493937 0.0126379 0.0216072 0.0101204 -0.0145788 -0.0903717 0.068526 0.019001 0.0907461 0.0889515 -0.0118616 -0.0380627 0.0283833 -0.042407 -0.0523648 0.0342001 -0.0833299 -0.0289161 -0.000615244 0.0541302 0.0296981 -0.0162219 -0.0497387 -0.0878451 -0.0753811 -0.0403843 -0.00772393 -0.0522804 -0.0569445 0.00509057 -0.0241606 -0.012829 0.0010971 -0.102852 -0.0829541 0.0219192 0.00300517 0.0456695 0.0890808 0.0191809 0.0250868 0.0114368 -0.0237935 0.0590824 -0.00613685 0.101774 0.00113703 0.0640375 -0.0447513 -0.0090511 0.000183805 -0.0404293 -0.0797021 0.0839767 0.0305853 -0.05642 0.0337195 -0.0662484 0.0874375 -0.0955441 -0.0268495 -0.0964695 -0.0877932 0.0347633 -0.0144998 -0.0147358 -0.022042 -0.0428158 -0.0749648 0.0475254 -0.0980805 -0.0308483 -0.0435604 -0.0519429 0.00632045 -0.0571788 -0.016336 -0.00976711 -0.0748535 -0.0263515 -0.0753257 -0.0101172 -0.0936398 0.00614928 -0.0480585 -0.063863 0.00872515 0.0660903 0.0523468 -0.0535361 0.0203507 -0.015398 -0.0791585 0.0141209 0.0903729 -0.0106522 -0.0733455 0.0939487 -0.0715556 -0.0100071 0.0467658 0.0883821 0.0294676 0.0772813 -0.0674761 -0.0280129 -0.0656908 -0.0923638 0.0732088 -0.0602936 -0.0536193 -0.0361316 0.0303344 0.0792059 -0.0981391 0.0040868 -0.0712078 0.00657142 -0.0739213 0.0780673 -0.0760616 -0.0782673 -0.094677 -0.070143 -0.0599355 0.0735192 -0.0051624 -0.0293294 0.0824152 -0.0847058 -0.0221404 -0.0910727 0.0937132 0.0673466 -0.0733118 0.0408917 -0.0601242 0.0158055 -0.0351276 -0.00532759 0.0414678 -0.0784824 0.0359842 -0.0957884 0.034207 -0.0897201 -0.0256604 -0.020502 -0.039756 -0.027784 -0.0311563 0.00332708 -0.0309135 0.0955629 0.0957549 0.0452138 0.0331919 -0.0542418 0.00755095 -0.0169779 -0.000806705 -0.100332 -0.0842915 0.0569503 -0.0176941 0.0170754 0.0761914 -0.00268725 0.0181756 -0.0699657 0.0198863 -0.0794792 0.0560976 0.0868957 0.0988297 0.0426604 -0.0626931 0.0782365 -0.0453308 0.077718 -0.0942582 0.0106938 -0.0762203 -0.0519448 -0.0555952 -0.0149519 0.0654219 -0.00523683 0.0533336 -0.10056 -0.0844325 -0.00972562 0.0228861 0.054733 0.0694642 0.0705848 -0.0317753 -0.0904249 0.0486871 0.0970146 -0.0988139 0.06064 -0.0372957 -0.0961279 0.0428163 0.0513106 -0.0843338 -0.0584099 -0.0755987 -0.0098667 -0.0405328 0.0057475 -0.0600767 0.014882 -0.0319417 0.0724693 -0.00310548 0.000347757 0.002407 0.0512509 -0.0292108 0.0173851 -0.0155894 0.0418714 -0.0947543 -0.0718415 -0.0423218 0.0651573 0.025208 0.0812423 -0.0946484 0.0954482 -0.0527919 0.102576 0.0936138 -0.0664765 0.00102935 -0.0654479 0.0626959 -0.0500716 -0.0396261 0.00889379 0.0643811 -0.0815315 -0.0707452 -0.00158153 0.078478 0.0678195 -0.0161435 -0.017557 0.0364309 0.0929217 0.0152843 -0.0147445 -0.0437713 -0.0181662 0.0422408 0.0102593 0.00339973 -0.0449206 -0.0602147 -0.0734043 0.0508103 0.0957241 -0.0100421 -0.0951337 -0.010069 0.0406464 -0.0963301 -0.0312428 -0.0597676 0.0108293 -0.0316178 0.0669734 -0.00510025 -0.0492033 0.0551331 -0.0512999 -0.00651221 -0.0869485 0.0725337 -0.024057 0.0657553 0.0364114 0.00233824 0.00507861 -0.0186236 0.0844595 -0.0358342 -0.0123486 -0.0424886 -0.0217581 0.0681907 -0.0977522 -0.0716485 0.0901347 -0.0963486 -0.0710096 0.07872 -0.00653685 -0.0332648 0.0226795 -0.0577061 -0.0949257 -0.0516503 0.0406653 0.067406 0.0199052 -0.0706724 0.0413007 -0.0824412 0.0575657 -0.0614021 -0.0976588 0.0489977 0.0943411 -0.0127105 0.0744496 -0.0855121 -0.0507161 0.0831833 -0.0654394 0.038926 0.0724507 0.0740401 0.025339 0.0288255 0.0630678 0.0510255 -0.0828266 -0.096816 -0.0517533 0.042821 -0.0129646 0.023187 0.0234371 -0.0713554 0.0778367 -0.0285573 0.091005 -0.0234706 0.0892774 0.0237325 0.0210394 0.0779975 -0.0690863 0.0688688 0.00835042 0.0305876 -0.0907624 0.0434447 -0.0346848 -0.0746885 -0.0869794 -0.0445349 -0.00811434 0.0956181 -0.0851934 -0.02784 0.088233 0.0561903 -0.00753672 -0.0279006 0.0984871 0.0580451 -0.0276532 -0.00841217 -0.0729139 0.0456854 0.0899702 -0.0290171 -0.0699027 0.0312042 -0.0893345 0.0594135 -0.0612755 0.0779394 -0.055151 0.0879282 0.0270813 -0.0159086 -0.051767 0.0105461 -0.0194224 0.0221318 -0.0777735 0.0116843 -0.0345711 0.0917262 -0.0913587 -0.100756 0.0149172 0.0891358 -0.0326454 -0.0395926 0.0336835 -0.074178 0.0813148 0.0955019 -0.0725496 0.011082 0.0668915 0.0207113 0.0446828 0.078687 -0.0687916 0.0455911 -0.00962458 -0.0189841 -0.0697786 -0.0821991 -0.0652186 0.0227933 -0.0755559 -0.0259121 -0.00121563 0.100917 -0.037886 -0.0597101 -0.00554441 0.0899582 0.101932 0.103306 -0.0689258 -0.052659 0.00211149 -0.0237362 0.0564662 0.0105778 0.0802314 0.0513175 0.0782272 0.0203976 0.0364876 0.0342452 0.00690767 -0.0435444 -0.0571748 0.0362553 -0.090991 -0.0808606 -0.0672846 -0.0142499 -0.0798505 -0.0319387 0.0144897 0.0787733 -0.0536645 0.0693192 -0.00168611 -0.0849347 -0.0270081 0.0920658 -0.062932 -0.0416222 -0.0554623 -0.0769287 -0.0543011 -0.095083 0.0062188 0.0409756 0.0581644 -0.016539 -0.0101276 0.0749021 0.096017 -0.0810859 0.0289391 0.0107887 0.0236225 0.0153252 -0.0304231 0.0131573 -0.0706136 -0.0555587 0.0245821 0.0722165 0.0232223 -0.0310301 0.0465496 -0.0950284 0.0612395 -0.0708319 0.076171 -0.0530733 0.0682602 -0.0649573 0.0846871 -0.0874594 0.0500473 -0.0927879 -0.0918304 0.0531542 -0.0351553 -0.0301504 -0.0907727 -0.0221046 -0.0553892 -0.0343175 0.0741106 0.0880872 0.0305504 0.048285 0.0534096 0.0920706 -0.0171652 0.0829452 -0.086298 0.0598735 -0.0486653 -0.0580991 -0.00278167 0.023827 -0.0881261 0.0884362 -0.0662656 0.0667329 0.0030214 -0.090243 -0.0665932 0.0330197 -0.0348072 0.0758166 0.0856965 0.0541593 0.0621847 0.0528143 0.0713538 -0.0832785 -0.0519376 -0.00762389 -0.0958752 0.0919572 0.0943696 -0.0179967 0.0154216 0.0981412 -0.0950537 0.0492631 -0.0422823 0.0394916 -0.00874092 -0.0894871 0.0857307 -0.0804427 -0.0343264 0.0631283 0.0323116 0.0594076 -0.0334783 -0.047184 0.0258609 0.0575318 0.0570862 -0.00415571 0.0319604 0.0943168 0.0778067 0.0594701 -0.0766825 -0.0503343 0.00330128 0.0410865 0.0614894 0.0761826 0.0174589 0.0685929 -0.0478517 -0.0928261 -0.0422132 -0.0258578 -0.0957013 0.0273462 -0.00440722 0.0159645 -0.075818 -0.0251789 0.0749189 0.0950979 0.0726741 -0.0430853 -0.0616181 0.0305394 -0.00641323 -0.0762157 -0.0708619 -0.0703778 0.0493859 0.0590976 -0.0781347 -0.0862117 -0.0292347 -0.0400743 -0.00815053 0.0847568 0.0235467 0.0904395 -0.0725695 0.0924251 0.0698605 -0.033464 -0.0251916 -0.0299065 -0.081129 0.0181974 0.0495226 0.0151698 0.0939815 -0.035771 0.00755104 -0.0423231 0.081489 0.0951959 0.0821621 -0.0295389 0.088261 0.0121563 -0.010742 0.0613942 -0.0393579 0.0841027 0.00527485 0.0469717 0.0863031 -0.0331403 -0.0178687 0.0334579 -0.0794507 -0.0162 0.078541 -0.0647016 0.0859311 0.00216004 -0.018661 -0.0739459 -0.0479025 0.0636641 0.0809491 0.00144102 -0.0919062 -0.0435753 0.00915405 -0.066727 0.00368713 0.0555113 0.0379925 -0.0109864 -0.0168356 0.0732503 -0.0703416 0.034609 0.0894304 -0.0365052 0.0483157 0.100827 0.0986075 -0.0803102 -0.0040539 0.0387559 -0.0461973 0.0934512 -0.0643844 -0.0794334 -0.0671248 -0.0997915 0.0343536 0.0829935 0.0549686 0.0909803 -0.0956028 0.0108716 -0.0840701 -0.0808664 -0.00282007 0.0215977 0.0035363 -0.0162866 -0.0112873 0.0873632 0.0843763 -0.0801757 -0.0544232 0.0795749 -0.0145847 0.0721 -0.0999349 0.0883484 0.0279018 -0.0798187 -0.0504845 0.082478 -0.0177927 -0.0670662 0.0811727 -0.00431843 0.0139316 0.0474376 0.0717458 0.0657658 0.0419136 -0.0858964 0.0303687 0.0782602 -0.00127701 -0.0743652 -0.0811872 -0.010619 -0.0153429 -0.0909624 0.0272156 0.0987542 -0.0791586 -0.0184805 -0.095129 -0.0858214 -0.0316619 -0.0657808 0.0819631 -0.0876591 -0.0287759 0.0140931 0.0955745 -0.0566979 0.0154015 0.0597298 -0.0414292 -0.038396 0.00595669 0.0738234 0.0738085 0.066433 -0.0113401 0.0236003 -0.0249638 0.0911912 -0.061993 0.026161 -0.0332451 0.0918793 -0.099046 -0.0895144 -0.00800846 -0.0781671 -0.0553847 0.0535856 -0.0433173 0.079855 0.00649341 -0.080703 0.0677535 -0.0314363 0.0206364 -0.0607029 0.0766974 -0.0805295 0.00751073 0.0420993 0.0597815 0.08855 0.0357696 0.0016079 -0.0441751 -0.0379758 0.00302937 -0.0542432 -0.0859025 0.0973557 0.0678336 -0.0650589 0.00821595 0.0847298 -0.0482691 0.0444454 0.0162856 0.0596224 0.0959379 -0.0342814 0.0591548 0.0619482 0.0554218 -0.072302 -0.0532117 0.0926465 0.0792178 0.088601 0.0904325 -0.0922627 0.0641066 0.0429824 -0.0579738 0.0576607 -0.0767924 0.0739734 -0.0731095 -0.0410576 -0.0315717 -0.0717596 -0.023367 -0.0494195 -0.0615029 0.0559676 0.0218825 0.0182049 -0.0181152 0.0652494 0.0454204 0.0714584 0.0778518 0.025016 -0.0345687 0.0573036 -0.0973022 -0.0450968 -0.0022686 -0.0557179 0.0162959 -0.0525296 -0.0625874 -0.0757943 0.05028 0.0668301 0.00836191 0.020953 0.0518481 0.0220205 0.0358286 0.00429675 -0.0657984 -0.00361 0.0287102 -0.0940734 -0.0412866 -0.0653795 0.0890523 -0.0655197 -0.0281162 0.00126191 -0.0517586 -0.0252397 0.0175195 -0.0462393 -0.0321858 -0.0918194 0.00456173 -0.0422654 -0.0149799 -0.053329 0.0461853 0.00141142 -0.042292 -0.0288771 0.0583187 -0.0450121 -0.0685206 0.087512 0.0547662 0.0195551 0.0939034 -0.0839666 0.0414761 0.03279 0.0707736 -0.0800496 -0.0818337 0.0339918 0.0908783 0.0191161 -0.0996984 0.0294705 0.0380316 -0.0904946 0.0400516 -0.0411456 0.0132898 -0.0340729 0.061396 -0.0514694 0.0617913 0.0833482 0.060031 0.042271 0.0373851 0.041991 -0.0866033 -0.0705944 0.0507497 0.041716 0.0663692 0.075643 0.0731023 -0.0979643 -0.019332 0.00902174 -0.0168166 0.0712872 -0.0220478 -0.023993 -0.0973179 -0.0158413 -0.0447609 0.0189763 -0.0760821 -0.0672527 0.0537744 -0.0639408 0.0353557 -0.0101564 -0.0839077 -0.0386339 0.00386274 0.0739055 -0.0737178 -0.0944374 -0.0827112 0.0296641 0.0740569 -0.0329066 -0.0469879 0.0983501 0.0215549 -0.0949472 -0.00381361 0.0307926 0.0511221 0.0633004 0.0845391 0.00884056 -0.0848271 0.0723227 0.0836609 0.0912684 0.00951475 0.0171886 0.0885374 -0.0571371 -0.0701266 -0.0574292 0.0102956 -0.0182545 -0.0775736 0.0538784 -0.0645938 0.00133565 0.0700561 -0.0875545 -0.0876964 0.0677339 -0.014674 0.0843936 0.02888 0.0242024 0.00711542 -0.00876312 -0.0931149 0.0828863 -0.0530115 0.0632525 0.0532634 -0.0160132 0.0263106 -0.00210988 0.0805535 0.0987201 0.0113119 -0.099022 -0.0403794 0.0536573 -0.0928291 -0.0223258 -0.057229 -0.0335261 0.00610759 -0.105967 -0.0180347 0.00389097 -0.0477851 0.0411097 0.0722366 0.0623196 0.0585991 -0.0863864 0.0307784 -0.0881498 -0.0602177 -0.0317994 0.060222 0.00903174 0.0686358 -0.0768575 -0.0538358 -0.0103601 -0.00597921 0.0281761 0.0756988 0.0397903 0.0841463 0.0971148 -0.0859037 -0.0743741 0.060191 -0.0214126 -0.0651916 0.0831234 0.0551504 -0.0172095 -0.092322 -0.0550662 0.0943684 -0.0556214 0.0315249 -0.0170634 -0.00211563 -0.0768912 -0.0232474 -0.0749446 -0.0174246 -0.00119666 0.0207314 -0.0987124 -0.0280683 0.0804531 -0.0885311 0.00743619 0.0294268 -0.0365945 0.077944 -0.0120374 -0.0171431 -0.0246713 -0.049546 0.0846029 -0.00917522 -0.0314604 -0.0169255 0.0420082 -0.0298533 0.055494 0.0811434 -0.0309722 0.0228785 0.0423636 -0.00224649 0.0490567 0.0180303 -0.0081081 -0.0726504 -0.0728809 -0.0292714 0.075299 -0.0828494 0.0627512 0.0330883 0.000152986 0.0136403 -0.0582452 0.0172259 0.0421216 -0.0376083 -0.0479171 -0.0298396 -0.00671764 -0.0686313 -0.0339838 0.0473211 -0.0944729 -0.0765072 -0.0889974 -0.0415779 -0.0335042 -0.00753294 0.0481878 -0.074283 -0.0685074 0.0214991 -0.0503271 0.0472376 -0.0353463 0.0854065 0.0299425 -0.0321773 -0.0422903 0.0795864 0.0107413 -0.0669685 0.0689744 0.0971772 -0.0177742 -0.00463807 -0.0866376 -0.09455 0.0953872 0.0334678 0.0443643 0.0278104 0.000478374 -0.0995434 -0.0390315 0.00776665 0.0568549 0.0396952 0.0340562 -0.0114902 -0.0210728 0.0893197 -0.0141727 0.0713504 0.0951972 -0.0740226 -0.0825887 -0.0772078 0.0827623 -0.0316848 -0.0560998 0.0638525 -0.0851625 0.0981382 0.012605 0.00591712 -0.0601491 -0.0183575 0.0207022 0.036 0.0514184 -0.00937468 -0.00362798 0.0385574 -0.023498 -0.0496798 0.0921777 0.0170931 0.0186279 0.0456176 -0.0186809 0.0501108 -0.0229915 0.0237459 -0.0732602 -0.0548531 0.0999886 -0.0316641 0.0844125 -0.00839578 -0.00834835 -0.0483034 -0.0449944 0.0128146 -0.0108374 0.0247616 0.0613799 -0.0646336 -0.0360277 -0.105232 0.0392882 -0.0573582 0.0669248 -0.0722041 0.0221515 0.0685358 -0.0725736 -0.0129348 -0.00215717 -0.055255 -0.0536191 0.0436994 -0.10163 0.0628323 0.0125601 -0.0987461 0.0361988 -0.0578479 0.0513789 -0.0495529 -0.0775971 0.0938718 0.0499585 0.0779438 0.077168 -0.0452561 -0.0791778 0.0858074 0.0781586 -0.0322664 -0.0861022 0.0254778 -0.0765564 -0.0513218 -0.0904133 0.0379216 -0.00857277 -0.0946401 0.0853342 -0.0898796 0.0515662 0.0335709 -0.0482647 -0.0885039 0.0317408 0.00819091 -0.0695125 0.0198274 0.0483711 -0.0982268 0.0612751 0.0446319 0.0926082 0.0322921 -0.067289 0.0835617 0.0251861 0.0956912 0.0429357 -0.0883453 0.0528031 0.0350011 0.0967349 0.0286868 0.023043 -0.0643644 -0.0630235 0.0023876 -0.0775607 0.100937 -0.0885208 -0.0644585 0.0221769 -0.0671371 0.0762702 -0.0212254 -0.0394744 -0.0766058 -0.0788653 -0.0723963 0.0316693 -0.0310316 0.022396 -0.0260847 0.0166481 0.02606 0.0782379 0.0811326 -0.0695312 0.0288985 0.0732084 -0.0865005 0.0296158 -0.0889342 -0.0523749 0.0117681 0.0520745 -0.0612361 -0.0401205 -0.0689312 0.0218107 0.0309649 0.0903567 -0.0282348 -0.0721244 -0.0557598 -0.039265 -0.0258877 -0.0529359 0.0936611 0.0671633 -0.0743219 0.0918271 -0.0851745 -0.0406632 -0.0896321 -0.0450574 -0.021837 0.0469551 -0.0108708 0.0421402 0.0150886 0.00428829 0.0964447 0.0771552 0.0687686 0.0188106 -0.0684451 0.0131495 0.0229793 -0.0836025 0.0834734 -0.0252228 -0.0214184 -0.0575385 -0.0236348 0.083881 0.0677696 0.0896506 0.0199185 0.0331001 0.0719431 -0.0544281 -0.0391291 -0.0352384 0.0337062 0.0646617 -0.0462927 -0.0638621 0.0275523 0.056152 -0.0123559 0.0840422 -0.060271 0.0617778 0.0184218 -0.0677082 -0.0554752 -0.0245128 -0.0796029 -0.0657694 0.024093 -0.00651996 0.017248 0.014634 -0.0383519 0.0199608 -0.0528778 -0.0831871 -0.00911503 0.0594589 0.0391596 -0.0286093 -0.0662355 0.00126502 0.0784483 -0.103097 -0.0807535 0.0892654 -0.101851 -0.0625188 -0.0730828 0.0682593 0.00279054 -0.0924038 0.0381242 0.0160136 0.0441843 -0.0293527 -0.0336565 0.0710138 -0.0188139 -0.0214489 -0.0408942 -0.0702897 -0.0816548 0.00012343 0.0463349 -0.0222233 -0.0380219 0.0315648 -0.00942794 -0.0733818 -0.0489467 -0.069436 0.0795767 -0.0554443 0.0544206 -0.0292648 -0.100076 -0.050636 -0.0700067 -0.0338964 -0.0883056 0.0637765 -0.0833967 0.0415651 0.102253 -0.0605911 -0.0237439 -0.0341366 0.0383161 -0.0298676 0.0631761 0.0669484 0.0296819 0.0755001 -0.0697096 0.0921341 -0.0462854 -0.0383259 0.09607 -0.00952079 -0.0873566 0.0552878 0.0849902 0.0861732 0.0730264 -0.0205005 -0.0925261 0.0943242 0.0281466 -0.0165656 -0.00303311 -0.0886389 0.0389499 0.0167681 0.00469412 0.0737299 0.0857681 -0.0275723 0.0622425 -0.0722861 -0.0459198 0.0256799 0.0437091 -0.0242323 -0.104509 0.0271188 -0.105685 -0.0758607 -0.0550597 -0.0320447 -0.068645 0.0655755 0.0967198 -0.0905009 0.0642632 0.0421608 -0.0387404 0.0635222 0.0701235 0.00799732 0.0761518 -0.0104164 0.0629944 0.0772688 -0.075111 -0.00329139 -0.0257698 -0.0272889 0.0449008 0.0245709 -0.0477037 -0.0635089 -0.0157157 -0.0880888 -0.0372168 -0.00352387 0.0423693 -0.0597952 0.00331616 0.0343715 0.0837692 -0.0255272 0.0574549 -0.0815442 -0.0726776 -0.0117935 0.088481 0.0187228 0.0860146 0.0448188 0.0712346 0.0385251 0.0413248 -0.0409866 0.0245301 -0.0460646 -0.0500898 -0.0662728 0.0329899 -0.027786 -0.0641079 0.0015705 -0.0231813 -0.0729268 0.0562593 -0.0278283 -0.00254283 -0.00866598 0.0936048 0.0783894 0.0149731 -0.0200542 -0.000137223 -0.0428152 -0.00995052 0.0551394 -0.0782006 0.00998295 0.0763268 -0.00441027 0.0124563 -0.0328245 -0.012665 -0.0648597 0.0557966 -0.0919363 0.0718945 0.0939673 -0.0119014 -0.0815928 -0.0868639 -0.00931017 -0.00514874 0.0816865 -0.0546431 0.0959615 0.0488036 0.00200506 0.085124 0.0587082 -0.0523089 0.0675103 -0.0234964 0.0910942 0.0366243 -0.0531007 0.0627349 -0.0310277 0.0769789 0.0162466 -0.0713172 -0.0654397 -0.0643142 0.0329406 -0.0597722 -0.0844183 -0.00642278 -0.0327682 -0.0353736 0.0599094 -0.0745511 0.00330813 0.0483473 -0.0209305 0.065536 0.0442578 -0.0675096 0.06585 -0.0605271 0.0845407 0.062228 -0.0581505 0.0307958 -0.00527935 0.0172505 -0.0299007 -0.0546495 -0.0637381 0.0599001 -0.0750043 -0.00145478 -0.00484972 0.0320809 -0.0602735 -0.084941 -0.0704839 -0.00160442 -0.00201728 -0.07166 0.0239026 0.0439684 0.0147339 -0.0657916 0.050291 0.0433061 -0.0355167 0.0643411 0.0718721 0.0759709 -0.0776998 -0.0548724 -0.0114947 -0.0199671 -0.0485759 0.00418293 -0.0896759 0.0995805 -0.0812465 0.0809883 -0.0851073 0.085366 -0.0837866 -0.040265 -0.0585594 -0.0976806 0.0417874 0.0194096 0.067828 0.0964207 -0.0225879 -0.0625509 -0.0381425 -0.0137372 -0.0354612 -0.00635226 -0.0176135 -0.0646682 -0.0206256 0.0707558 -0.0686786 0.0789274 -0.0762784 0.0147875 0.000407488 -0.0221392 0.0909484 0.0273426 0.0811547 -0.0297391 -0.00707325 -0.0886925 -0.0733943 -0.0528029 -0.0648324 0.0462283 -0.0182997 0.0475987 -0.0770165 -0.0178459 -0.0340975 0.030514 -0.0243259 0.0878236 -0.0856396 0.0913267 -0.0975718 -0.0250464 0.0695831 0.00627033 0.0567145 0.00502588 -0.071082 0.00783416 0.0574984 0.0705011 -0.0802174 0.0404817 -0.0598217 -0.0445043 0.0450942 -0.0930845 0.0876355 -0.0146302 0.020499 -0.0213298 -0.0744297 -0.0739116 0.0389714 0.0935076 -0.00629696 -0.0114042 0.0238977 -0.0599889 0.0922332 -0.0750491 0.0413058 0.00763444 0.0513063 -0.0297995 -0.0330162 0.0975915 -0.0827293 -0.0194758 0.0669379 0.000672997 -0.0873102 0.075701 -0.0859457 -0.0450051 -0.0958257 -0.0068816 0.045876 -0.0632784 0.0667519 -0.0274132 -0.0520236 -0.00273612 0.0600496 -0.060065 0.0350269 0.0833541 -0.00397254 0.0130521 -0.0159049 0.0933798 0.0406248 0.0447418 0.0869426 -0.0685724 0.0448865 0.0211474 0.0454845 -0.0454297 -0.0750574 0.0308428 -0.0998168 0.00191722 -0.0119603 -0.0162071 -0.0563158 -0.0100395 0.0579652 0.0819785 -0.0743568 0.0311318 -0.0965003 -0.00866639 0.0769512 -0.0929982 0.0450629 0.0928654 -0.0240067 -0.0756583 -0.0872267 -0.0566313 -0.0169706 -0.0890328 0.0692903 -0.0297861 0.0081242 -0.0362489 0.0980354 0.0767699 -0.0756965 -0.0342531 0.0844448 -0.0756827 -0.07384 -0.00159862 0.0705185 -0.097263 -0.0124878 0.00275369 0.0410535 -0.00505552 0.0709467 -0.0236305 -0.0748094 -0.0485207 -0.0707791 0.0664212 0.00148962 -0.0920154 0.0150879 -0.102233 0.0107578 0.039142 0.0155071 -0.10224 -0.00800248 -0.0526031 -0.0210647 -0.0677179 0.0741906 0.0690917 -0.0888461 0.0453326 -0.01019 0.0315215 0.0265383 0.0782966 0.0663281 -0.0885828 0.0971635 -0.0277192 0.0932178 -0.0553916 -0.0439869 -0.0400547 0.0949815 -0.0664049 -0.0585933 -0.0116132 0.0951287 0.0031758 0.00786402 0.0191267 -0.0414218 0.0505675 0.0755811 -0.0240581 -0.0502853 -0.0453827 0.0289659 0.0710425 0.0374027 -0.0812883 -0.0750557 -0.0418663 0.0858275 -0.0478711 0.020395 0.055438 -0.023065 0.0329735 0.0518181 0.0385181 -0.0140601 -0.0531991 -0.0587523 0.0461885 -0.0347077 -0.0992088 -0.0473293 -0.0942462 0.0564137 0.0771852 0.0117846 0.0184491 0.00803115 0.0918421 -0.0892154 -0.0483609 -0.0462049 0.0779242 0.0318419 -0.0469922 0.0171515 -0.0347156 -0.02837 0.0407271 0.0664619 0.0700686 -0.0867409 -0.0190348 0.0539493 0.0466893 -0.102272 0.0938968 -0.0921208 -0.0236605 -0.0102898 0.0884843 0.0489346 -0.0857429 -0.0126261 0.0185699 0.00277189 -0.0247211 0.0154892 -0.0645797 -0.0202905 0.0040189 0.0259421 -0.0788898 -0.0188806 -0.0130446 -0.0365729 0.0599591 0.0727856 0.0197977 -0.00398217 0.0485682 0.0916296 -0.0842099 -0.0347981 -0.0401412 -0.0625832 0.00111347 -0.0275037 -0.089826 -0.0695323 -0.0526518 0.0663276 -0.00259316 -0.0339026 -0.0401339 0.0611008 -0.0386904 0.0561316 0.0153141 0.0323669 0.0519568 0.0946471 -0.0788564 -0.0590375 -0.0809136 0.0882557 -0.0175595 0.0539019 0.0764827 0.089995 -0.0407732 -0.0261132 -0.0905509 -0.088377 -0.0147912 0.0368724 0.0727813 0.00915726 -0.022434 0.0973009 0.051614 -0.0375178 -0.0905559 -0.0532756 0.0879259 -0.0317988 0.0640821 0.0235383 -0.0784375 0.0485208 -0.0707041 -0.0050648 0.0702815 0.00053144 0.0022367 0.0312927 0.068974 0.00596051 0.0937419 0.0517929 -0.0876469 0.0609291 0.0176509 -0.0504698 0.0665567 -0.00324721 -0.0172707 -0.00936172 -0.0478314 -0.0752577 -0.0918966 -0.0128586 0.0419629 -0.0850398 -0.0476292 0.0457248 0.090966 -0.0899542 -0.055733 -0.0116368 0.0270443 0.0576934 -0.0765905 0.0873383 -0.0447225 -0.0961205 -0.0591604 -0.0735086 -0.0226531 0.0433375 -0.00345277 -0.0381489 0.065732 -0.0844638 -0.0385561 0.0225098 -0.0516187 -0.00971984 -0.00303026 -0.0866503 -0.0966043 0.0879812 0.0257186 -0.027046 -0.0567283 -0.0268846 0.0761617 -0.0785197 -0.0409532 -0.100319 0.00720634 0.00457334 0.0938844 -0.0990367 0.0522906 -0.0763629 0.0553197 -0.0632325 -0.0309464 0.0592937 0.0938145 -0.037266 0.0575561 0.0924039 0.0201637 -0.0247554 0.0290525 -0.0812137 0.0393662 -0.0321823 0.000714729 0.0927447 0.0702864 0.0811308 -0.10642 0.0838413 -0.0259515 0.0149354 -0.0891643 0.0509989 -0.104072 -0.0541571 0.0594097 0.0869202 -0.0731166 -0.075699 0.0254044 0.0474089 -0.037225 0.0721527 -0.0571783 -0.0824315 -0.0579755 -0.0636509 -0.0694805 -0.00914843 -0.0544584 -0.0368001 0.0925024 0.0649688 -0.0457406 0.00774775 -0.0591111 0.0184644 0.0332643 0.0611573 -0.0978083 -0.053585 -0.0444512 -0.0856982 0.0165061 -0.102258 0.0598107 -0.0431994 -0.0362296 -0.105297 -0.0957326 -0.0892053 0.0730087 -0.0256087 0.042279 -0.0145712 -0.0410081 -0.0557114 0.0292176 -0.0214821 0.0836941 -0.0723514 -0.0302555 0.0277462 -0.0547869 0.038848 0.0949841 -0.0624459 -0.0477854 0.0707134 0.0482808 0.0346381 0.0489907 -0.00533691 0.0139514 0.00701846 -0.0402108 0.017968 -0.011421 -0.0861623 0.0176295 -0.0897382 0.0201931 0.0873837 0.0580339 -0.0501505 -0.00948223 -0.0394112 0.000187648 -0.0504029 -0.0796855 0.0700998 0.0167903 -0.085221 -0.070435 0.0179371 -0.0905869 -0.0645751 -0.0260123 -0.0786925 0.00427681 -0.085004 0.0944339 0.088103 -0.028397 -0.0494247 0.0699768 0.0237166 -0.0580059 0.00869994 0.0295141 -0.029683 -0.0333083 -0.00109125 0.0325645 -0.00258205 0.0169889 0.0865215 0.0172637 0.0857726 -0.0443667 -0.0900247 -0.0390109 -0.0104204 0.0472095 -0.0200774 -0.0674454 -0.00820481 0.0762841 -0.0226151 0.00510183 -0.0705646 0.00231323 -0.0909244 -0.0930431 0.00169849 -0.0566335 -0.0968398 -0.0278802 -0.0717453 0.0505536 0.0650217 -0.0435945 -0.0934446 -5.91265e-05 -0.0124 -0.066306 -0.0661512 0.0386618 0.001587 0.0676404 0.0386841 -0.0021634 -0.0519954 0.0794546 0.0411392 0.00367893 -0.0548966 -0.059401 0.0093334 -0.0978385 0.032937 -0.0875285 0.0292796 -0.00257125 0.00940967 -0.0331605 0.0308148 -0.105804 -0.0569796 0.0331466 0.102735 0.0291869 0.0259885 -0.0339614 0.0402346 -0.00257085 0.0716582 -0.0618473 0.076655 -0.0496975 -0.00275832 0.0700052 -0.0501595 0.0281878 0.102671 0.0706631 0.0542276 0.0736025 -0.0976339 -0.0885192 -0.0136858 -0.0395243 0.0665801 -0.0387611 -0.00661391 0.0769897 -0.0137183 -0.0160613 0.0105126 -0.0981225 -0.0107844 0.0520734 -0.00409524 0.084511 0.0735164 -0.0268135 -0.0709472 0.0436805 -0.0174975 -0.0826975 0.00364076 0.071096 0.0434071 -0.0535572 0.00314026 -0.000759521 -0.0468769 0.0756767 0.0515163 -0.011033 -0.0393446 0.0340574 0.0740134 0.0336585 0.0106589 -0.0772854 0.00917178 0.0476195 -0.049718 0.0646823 0.0891382 -0.0152499 0.0612855 -0.0665551 -0.0628955 0.033342 0.042827 -0.0355167 0.0473944 -0.0134385 0.00519758 0.0375836 -0.0983413 -0.0672365 -0.0116106 0.0529899 0.0656425 -0.093888 0.0937358 -0.0447708 0.0595122 0.0821594 -0.0553939 0.0527253 -0.0554847 0.0855374 -0.0515136 0.0907791 0.0421216 -0.0451448 0.0983532 -0.00528219 0.0976854 -0.00617492 0.0977996 0.0734288 0.0455803 0.0170571 0.000832966 -0.0982365 -0.024616 -0.021737 -0.0542762 0.0176367 0.0530294 0.0909706 -0.0538608 -0.0699032 0.0927199 -0.0430115 -0.0293692 0.0498031 0.0135849 0.0296431 0.0274025 0.0608679 0.0174308 -0.0841756 -0.0220557 -0.0586665 0.0900913 0.0787873 -0.0753211 0.0222905 -0.0580822 0.0966928 0.0690062 0.0569582 0.0133403 0.100644 0.00877602 -0.0143085 0.0346959 0.0227849 0.0253878 0.0505432 0.053861 -0.0876442 -0.0157484 -0.033552 0.101174 -0.0395792 0.0800397 0.074652 -0.0438037 -0.0796459 -0.0298959 -0.0265231 0.000683974 -0.0731288 -0.0864154 -0.00524586 0.000605559 0.0859168 0.0275339 -0.0659651 0.0998807 -0.0560533 -0.00815937 -0.094282 0.0662505 -0.0361448 -0.00982012 -0.088408 0.00196599 0.0292161 -0.0302862 -0.0237928 0.0473345 0.0565441 -0.0167996 -0.0211361 -0.0263804 -0.0757697 -0.0399503 0.0553617 -0.0547397 0.0207483 -0.0319253 -0.0647734 0.00076778 -0.0816239 0.0101002 -0.0504138 0.0350773 -0.0697443 -0.0651225 -0.000800116 -0.0422826 -0.0769629 -0.0708367 -0.00237389 0.011451 -0.0832562 0.0798005 -0.0848933 0.0670529 0.0168073 -0.0877801 -0.0592905 0.0676392 -0.0437213 0.0122958 0.00897753 0.037887 0.0303091 -0.0785933 0.0963018 0.0508319 -0.0268501 0.0724108 0.0465272 0.00228986 -0.0677623 -0.0854972 0.0929863 -0.0653032 -0.0573398 0.0334725 -0.0960667 -0.0824599 0.0306495 -0.00712393 0.0713185 -0.0670524 0.0603296 -0.027415 -0.0899688 -0.00425807 -0.00119499 0.029439 -0.0222213 0.0206422 0.0955097 -0.0878269 0.0729736 0.0750683 -0.082881 0.0758724 0.0190793 -0.0301982 -0.050392 0.0768754 -0.0124367 -0.0893051 0.0608387 0.0793666 0.0687228 0.0320683 0.0650968 -0.0275441 0.0571691 -0.0147557 0.0163345 -0.0533253 -0.0971815 -0.0323719 -0.0160251 -0.00593929 -0.0421387 -0.0962711 0.0408853 -0.00457515 -0.0795975 -0.0302623 0.0335299 -0.0550788 0.0351744 -0.0442224 -0.0324402 0.00688576 -0.00664407 -0.0689136 0.0655773 0.0601066 -0.0554032 0.0281283 -0.0681622 0.0662958 -0.053188 -0.013171 -0.0955448 0.0973614 0.0531276 -0.0197306 0.0393376 -0.0905745 0.0294056 -0.0913265 -0.0349216 -0.0375009 -0.0647628 -0.0592658 -0.06458 -0.072424 0.0216989 0.0779304 -0.0145957 0.0855586 0.0306115 -0.052993 -0.083532 0.00678282 0.0795206 0.0642936 -0.0180387 -0.014586 0.03148 0.0181063 -0.0934177 -0.0108148 0.102391 -0.0432963 -0.0253903 -0.0232517 -0.0793628 -0.0537774 -0.0117448 0.0354543 -0.00837156 0.0405995 0.0891791 -0.0303928 -0.051941 -0.0433317 -0.0191341 -0.00203794 -0.059818 -0.0335961 0.0900752 0.0554631 0.0605198 0.0114226 -0.0849759 0.0832267 -0.0609576 0.024762 -0.0692413 -0.0224552 0.0528329 0.0166016 -0.00111958 0.0173477 0.0320775 0.0413116 0.0455277 -0.0908902 0.0725806 0.0448623 -0.0452474 -0.0357104 0.0656713 0.0404958 -0.0540674 -0.048733 -0.0859907 -0.0501692 0.0935259 -0.0505321 0.00955554 -0.0694282 0.0351902 0.0198415 -0.088183 0.0901554 -0.0671613 0.0455712 0.0201933 0.0381196 -0.0639462 -0.0685437 -0.0054962 0.0857849 0.0744316 -0.0956325 -0.0108598 0.0269282 -0.018708 0.00551825 -0.0922064 -0.0119789 0.036169 -0.0104735 -0.064706 0.0423291 0.00947236 0.0232889 0.0273338 -0.00132056 -0.0606917 -0.0680211 0.0144507 0.0321584 -0.0737904 -0.00187552 -0.0941916 0.0501471 0.0937508 0.055642 -0.0963183 0.071314 0.0784189 0.00249698 0.0948263 -0.00578063 -0.0623183 0.0139284 0.0610795 0.0290036 -0.0315638 -0.0768455 0.0399269 0.0581404 -0.0933421 0.041389 0.0102184 -0.0554935 -0.00306313 -0.0799175 -0.0648781 0.0564899 0.0546504 0.0325474 -0.0962855 -0.0151314 -0.0971571 0.0518822 0.0900437 -0.0338934 0.0710897 0.0849639 -0.0905693 0.0247343 0.0279732 0.0869737 0.0597724 0.063925 -0.0268327 -0.00458608 -0.0776724 -0.0396207 -0.000795421 -0.0170266 -0.0196375 0.0874725 0.0814703 0.00767865 -0.0445087 -0.0941516 0.0405843 0.0764758 -0.0616431 -0.0629099 0.0794428 0.0956134 0.0102639 0.0882963 -0.0215713 -0.0697447 -0.0151338 0.0118166 0.0043694 0.070976 0.0422529 0.0571096 -0.0952698 -0.0906095 0.0655611 0.0783807 -0.0541444 0.050898 0.0521129 -0.0794466 0.025006 -0.0599782 -0.0888858 -0.0887086 -0.0905627 -0.0240007 0.0409571 -0.00421973 -0.084874 -0.0366103 0.0451417 0.0738625 -0.0242752 0.0229228 0.0878807 -0.0684696 -0.0688943 -0.0516724 -0.0751048 0.0046257 -0.0405666 0.042676 -0.020912 0.00991044 -0.0850026 0.010248 0.0628674 -0.0351894 0.0359244 0.0349285 -0.00502749 0.031417 0.0796464 -0.0603803 -0.00699165 0.0751354 0.034418 -0.0202589 -0.0941421 -0.0374316 -0.0325922 -0.0596272 0.0749597 0.0313249 0.0545189 -0.0658721 -0.0524695 -0.0942743 -0.0132871 0.0802433 0.0115053 -0.0199058 0.0746979 -0.0729298 -0.0520945 0.0773333 -0.0541656 0.0469643 0.0410849 -0.00165737 0.0816657 0.100143 0.00974147 -0.0923581 0.0504826 -0.0512274 0.0510909 -0.074101 0.089539 -0.0126515 0.000698053 -0.0890645 -0.0147468 -0.0166848 -0.0881977 -0.0501598 0.0897363 -0.0149975 -0.0728765 0.0838424 0.0331447 -0.0770385 0.0313649 -0.0680861 -0.0672245 0.0622288 0.0752789 0.0809405 0.0295601 -0.0246563 -0.0508129 -0.0223498 -0.055897 0.092808 0.0615694 -0.00821197 -0.0144407 -0.0268271 -0.0873249 0.0651279 -0.087417 0.01594 -0.0585976 0.0567767 -0.0265499 -0.0225878 0.0378503 -0.0465035 -0.00333577 0.0460529 -0.00168193 -0.0855824 -0.0342186 -0.0239396 0.0766289 -0.0191962 0.0676066 -0.0361457 -0.0606131 0.0836924 0.00577113 -0.0856172 -0.0180776 0.0250366 0.0312105 0.0570234 -0.0455988 -0.00170099 -0.0113581 -0.0776329 -0.0374811 -0.0675299 -0.0236804 0.0632732 -0.0821705 -0.0972749 -0.0337507 0.0627617 -0.0663571 -0.0451956 -0.0565932 0.0715496 0.0269242 0.0255166 0.0133661 -4.67902e-05 0.0240116 0.0711535 0.0377025 0.0303078 -0.0717469 0.0890759 0.0230904 -0.0574977 -0.0593439 0.0491017 -0.0759279 0.0813079 0.0211744 0.0402005 -0.0650441 -0.00431838 0.0853689 -0.0910672 0.0345845 0.0427105 -0.0629252 0.0630848 0.0504132 -0.0244084 0.0831559 -0.0602009 0.00614165 0.0307588 -0.0362989 -0.0275942 -0.089459 0.0909893 0.0920057 0.0766221 0.0370083 -0.0363071 -0.0432387 -0.0799243 -0.0317791 0.0256821 0.0618354 -0.00522743 0.0221591 -0.0440066 0.00284229 -0.0927608 0.094551 -0.035972 -0.0755027 0.00157127 -0.073542 -0.0879181 0.0697938 -0.0469886 -0.0228947 0.0377109 0.0621048 -0.0232518 0.00965834 -0.0248701 0.0286711 0.00551651 0.0246651 0.0808504 -0.0360812 0.0639008 -0.0869798 -0.0367818 -0.049887 -0.037951 -0.0884591 0.0416957 -0.0749142 0.0424159 -0.0557503 0.0410541 -0.0436862 0.0488878 -0.0421299 -0.0882548 -0.0503279 0.0824356 -0.0905707 -0.0118216 0.0298813 0.051573 0.000903229 -0.0911355 -0.0660507 -0.0756894 0.0119068 -0.000696379 -0.068158 -0.00224304 -0.0145083 0.0562058 0.0849243 0.0937018 0.0779314 -0.054385 0.0513711 0.0678677 0.0804863 -0.097507 -0.0981652 -0.0900375 0.0174273 0.0624833 -0.0887187 -0.0970324 0.0523613 0.0545749 0.0162133 0.0642644 0.014209 0.0411242 -0.0678601 -0.00499481 0.0607837 0.052659 0.058178 -0.0435613 -0.0623555 0.0886685 0.0144801 0.00280043 -0.0565867 0.0748036 0.0659476 -0.061137 0.0151076 0.0178413 0.0754149 0.0405778 -0.0476003 0.0818081 0.0706367 0.0906491 -0.0502815 0.0166958 0.00610727 0.0512695 -0.0735421 -0.0533136 -0.0805607 0.0474462 0.0044615 0.0888614 0.0881145 -0.037829 -0.00578155 0.0729097 -0.040423 -0.0569187 0.0204114 -0.0560798 0.0420318 0.0710369 -0.0344658 -0.0961946 -0.00844988 0.00878667 -0.087031 -0.0282499 -0.0471402 0.0394767 -0.0470335 0.0130458 0.0678087 0.0815701 0.00145367 -0.0816084 -0.0300583 -0.00751823 -0.0453314 0.0689178 -0.0732915 0.00149106 0.0608813 0.0741382 0.08066 -0.0518927 -0.0111738 0.00323879 -0.0350332 -0.0938417 0.0285599 -0.0293405 -0.0891185 -0.0942302 0.0720183 -0.047324 -0.043846 -0.0834533 -0.0231511 -0.0130205 0.0424714 -0.048328 0.0824518 -0.0429101 0.0352144 0.0598646 -0.0589106 -0.0796467 -0.0413484 0.0666494 0.0865782 0.0762012 0.0615795 0.0544373 -0.0694422 0.058861 -0.0916963 -0.0632626 -0.0477897 -0.0827358 -0.0812092 0.0160417 -0.0889467 -0.0864024 0.0112057 -0.0147174 0.0104764 -0.0548297 -0.058602 0.0203205 -0.0583784 -0.00230429 -0.0761402 -0.0333935 0.0235718 -0.0973996 -0.00362375 0.00809602 -0.0889981 0.0592014 0.0577479 0.0611454 -0.0611396 -0.0713845 0.0826946 0.00505291 -0.0894588 0.0526344 -0.0903586 0.0512834 0.0307924 0.000513108 0.0500824 0.0761234 0.012781 -0.0487879 -0.0265011 -0.0573345 -0.0427925 0.00527457 0.0265292 0.0786853 -0.0279444 -0.0598421 -0.040916 -0.0628293 -0.0565043 -0.0506284 0.078084 0.0175195 0.036251 0.00367605 -0.00106414 -0.0287755 -0.0927614 -0.050396 0.0454644 -0.00707652 0.0405683 -0.0603386 0.0100894 0.0116613 0.0141741 -0.00448909 0.0537458 0.0967039 0.0130152 0.0120145 0.0899811 -0.0722233 -0.026086 0.0561637 -0.0843327 0.0147501 0.0707426 -0.022476 0.0650701 0.0708645 0.0276649 -0.036831 -0.0542816 0.0792881 0.0316814 0.0681428 0.00926278 0.0881376 -0.00336712 0.0447988 -0.00237149 -0.0276034 0.00316741 0.077055 -0.0976445 -0.0869324 0.0240015 -0.0106307 -0.0300742 -0.0863014 -0.0251245 -0.0214057 0.0776634 -0.0603647 -0.015195 -0.0390804 0.0888743 -0.00665878 0.0308164 0.0482108 0.0535147 0.060976 0.00193245 -0.0518435 0.0667762 0.101508 -0.0373667 -0.0595639 0.0633255 0.0629908 0.00672182 0.0148066 -0.0100838 -0.0316012 0.0214943 0.0367878 0.0179787 0.0248945 0.00120371 -0.0943483 -0.0297848 -0.0120015 0.039244 0.0454338 0.0627738 0.0663631 -0.0936824 0.00948269 0.0297258 0.000829305 -0.0173855 -0.0384012 -0.00905896 -0.0297695 -0.092837 -0.092214 -0.0271765 -0.0464028 -0.098442 -0.0210093 -0.0522908 0.0502936 0.0929693 -0.0266807 0.0524897 -0.0583171 -0.0786842 0.0732214 -0.0254456 0.0284709 -0.0994554 -0.0377493 0.0962572 -0.0529831 0.0616274 -0.0446894 0.0196799 0.019586 -0.0447269 0.0575637 -0.08004 0.0892092 0.0105983 -0.0404446 -0.00250768 0.0821292 -0.0420018 -0.066951 0.0898312 -0.0814568 -0.0412493 0.0135962 -0.0597271 -0.00679244 -0.0743899 0.0113528 -0.0844765 -0.0512996 -0.0556461 0.096307 -0.092241 -0.0749794 -0.0857168 -0.0595938 -0.074497 -0.0800243 -0.0369083 -0.0715345 0.0303159 -0.08696 0.0751222 -0.0154436 -0.0128593 -0.0566691 0.0103325 -0.00841013 -0.0773611 0.0990395 -0.00364772 -0.0118114 -0.0738666 0.0321836 0.0739682 -0.0493558 -0.0376154 -0.0666336 0.0160792 0.0411572 -0.0865971 -0.0480001 -0.0610728 0.0568418 -0.0797074 -0.0386237 0.0470625 0.00528781 0.0643537 -0.0873858 -0.0662394 0.064867 -0.000941813 0.0423858 0.0636866 0.0732805 -0.0468523 -0.0171425 -0.0196621 0.00174475 0.09682 -0.0367531 0.0663481 -0.0713413 0.0361694 -0.0324233 0.0913439 -0.0626831 0.0677582 0.050603 0.0440352 -0.0855411 0.0359997 0.0694194 0.0822843 -0.0635801 -0.0769247 -0.084169 -0.0983547 -0.0879554 -0.00550172 -0.067183 -0.00820086 0.025551 0.073705 0.0513824 0.0756278 -0.0590258 0.0309257 -0.0840377 -0.0192569 -0.0779114 0.0411328 -0.0355181 -0.133063 0.0122732 -0.093179 -0.0748674 -0.0762222 0.055681 0.0782199 -0.0301702 -0.0305061 -0.0707644 -0.0958882 0.0734065 0.0330724 0.0112821 -0.0995577 -0.0158851 0.0242757 0.0766483 -0.0671395 0.031303 0.035132 -0.0955462 -0.0607214 -0.00258907 0.0304416 0.0513556 0.0842367 -0.010664 0.0665229 0.012585 -0.0873145 0.094933 0.0144606 0.069001 0.0882717 -0.0449346 0.0989026 -0.0736392 0.0873625 -0.0775828 -0.010945 -0.0293398 0.0499124 0.000282569 -0.0402515 0.094804 0.0803801 0.00559995 -0.0869545 -0.0157974 -0.0123078 0.0483526 -0.0632502 0.0355973 0.0655276 -0.00546779 0.0598934 -0.0465912 0.0237938 0.0695131 0.100007 -0.048924 -0.0603324 -0.0648761 -0.00456323 0.0451785 0.0778182 -0.0208495 0.0598169 0.0478275 -0.0930229 -0.0814859 -0.00066482 0.0274703 0.0720444 0.0871447 0.0712187 -0.0930881 -0.0704473 -0.0918834 -0.035905 0.0514251 0.059947 -0.0668516 -0.0690053 -0.0767881 -0.0299024 0.0334796 0.0863743 0.0150327 -0.0332884 0.0624732 0.0595561 -0.0239064 -0.0856804 -0.0863227 0.0693829 0.0389246 0.0968705 0.0215703 -0.0188545 -0.00936464 0.0682316 0.0452914 -0.0451054 0.0468502 0.0145798 0.0536932 -0.0527061 0.0713375 0.0791113 0.0114715 0.0398995 0.00737225 0.0923108 0.0690551 -0.0890995 0.0591777 0.0654388 0.0896521 0.0557838 0.010456 0.0172055 0.0763318 -0.0469301 0.0067166 -0.0949548 -0.0178741 0.0384508 0.0549694 -0.0150636 0.0273114 -0.0707691 0.0877687 -0.0119936 0.0321808 -0.0748842 -0.0614444 -0.083222 -0.0384802 0.0352391 -0.0822721 0.0396116 -0.0162628 -0.0270824 -0.0831753 0.0374181 0.0940624 0.00756928 -0.0636659 -0.0353196 0.092649 0.0815631 -0.0959546 0.0626645 0.00331708 -0.0786723 0.078457 -0.0847263 -0.0754386 -0.0929914 -0.0984537 -0.0558447 0.0962005 0.02556 -0.0252845 0.0159122 -0.0814967 -0.0646729 0.0224164 0.0575617 -0.0950869 -0.0333644 -0.0267491 -0.0685055 0.0816374 