-0.067 0.063 -0.031 0.076 -0.036 0.099 -0.04 0.089 -0.008 -0.001 -0.016 0.062 0.024 -0.064 0.024 -0.032 0.059 0.07 0.071 -0.015 0.028 0.027 0.058 -0.028 0.047 0.023 -0.046 -0.095 0.088 0.036 -0.041 -0.026 0.063 0.038 0.045 -0.012 -0.043 -0.026 0.099 0.071 0.099 0.028 0.001 -0.095 -0.076 0.052 -0.097 -0.021 0.064 0.088 0.097 -0.008 -0.06 -0.012 0.085 -0.027 0.064 -0.045 0.067 -0.033 -0.002 0.088 0.074 -0.08 0.011 0.064 0.086 -0.046 0.089 0.023 -0.05 0.084 0.074 -0.065 0.079 -0.062 -0.007 -0.007 -0.027 0.075 0.018 -0.033 -0.026 -0.016 -0.077 -0.016 -0.08 0.033 -0.093 -0.066 0.021 -0.005 0.072 -0.033 -0.067 0.088 -0.035 -0.02 0.04 -0.007 -0.064 0.014 -0.074 -0.006 -0.085 0.052 -0.093 0.091 -0.036 0.047 0.02 -0.069 0.004 0.04 -0.068 0.057 0.026 -0.091 0.079 -0.012 0.046 -0.052 0.011 0.092 -0.042 0.021 -0.057 0.046 -0.007 -0.002 -0.034 -0.006 -0.004 -0.079 0.029 -0.031 0.004 0.018 -0.071 -0.087 0.096 0.082 0.034 -0.088 -0.087 0.033 -0.01 0.07 0.004 0.003 -0.071 0.05 0.051 -0.089 -0.053 0.06 0.037 -0.051 0.023 0.003 0.019 -0.022 -0.085 -0.072 0.031 0.079 0.065 0.066 0.016 0.033 0.022 0.04 -0.036 -0.035 0.044 0.006 -0.081 -0.08 -0.093 0.04 0.089 0.042 0.091 -0.014 0.053 -0.076 -0.052 -0.059 0.099 0.003 0.001 0.021 -0.012 0.076 -0.087 -0.047 -0.051 -0.088 0.009 0.039 -0.055 0.027 -0.072 -0.093 0.093 0.01 -0.042 0.045 0.052 0.038 -0.004 -0.005 -0.047 -0.039 -0.027 -0.057 0.079 -0.029 -0.091 0.088 0.054 0.042 -0.071 0.082 -0.041 0.013 -0.058 -0.097 0.083 0.036 -0.006 0.059 -0.011 0.04 -0.099 0.003 0.082 0.068 -0.036 0.044 -0.083 -0.042 -0.051 -0.084 0.057 0.05 0.084 -0.045 -0.041 -0.048 -0.006 -0.064 0.045 0.05 0.002 0.082 0.014 -0.092 -0.061 -0.097 -0.035 -0.035 -0.018 -0.053 -0.052 -0.062 -0.03 -0.043 -0.04 -0.044 -0.083 -0.056 -0.07 0.016 -0.022 0.013 -0.048 0.075 -0.081 0.096 -0.031 -0.018 -0.081 -0.018 0.097 -0.025 0.076 0.067 -0.088 0.061 -0.077 -0.011 -0.06 0.075 0.059 0.097 0.096 0.039 -0.042 0.038 0.081 -0.03 -0.026 -0.023 0.098 0.096 -0.089 -0.08 0.066 -0.067 -0.022 0.014 0.03 0.006 0.085 -0.098 -0.053 0.082 0.06 0.071 -0.069 0.049 -0.068 0.016 -0.096 -0.07 -0.056 -0.015 0.081 -0.058 -0.093 0.095 -0.075 -0.098 -0.021 -0.031 0.098 0.003 0.009 0.054 0.009 -0.029 0.095 -0.045 -0.097 0.06 -0.036 -0.072 0.005 0.086 0.035 -0.037 0.015 -0.035 -0.052 -0.006 -0.065 -0.079 -0.022 0.02 -0.026 -0.032 0.029 -0.007 0.037 -0.041 0.077 -0.023 0.018 -0.008 -0.021 -0.09 -0.057 -0.045 -0.037 -0.063 -0.044 0.017 0.004 -0.088 -0.029 0.084 0.002 -0.065 0.034 -0.015 0.024 0.095 -0.007 0.078 0.019 0.07 0.099 0.083 0.01 -0.044 -0.003 0.062 -0.052 -0.016 -0.022 0.067 0.081 0.056 0.072 0.019 0.034 -0.015 0 0.023 -0.073 -0.079 0.017 0.008 -0.046 -0.099 0.08 -0.069 0.033 0.043 -0.04 0.064 0.093 -0.007 -0.021 0.021 0.042 0 0.09 -0.017 -0.088 0.084 -0.063 0.048 -0.03 -0.072 0.068 0.036 -0.024 0.069 -0.039 -0.048 -0.045 -0.06 0.078 -0.006 -0.03 -0.04 0.095 0.025 -0.041 -0.096 -0.006 0.08 0.039 0.059 0.095 0.037 0.023 0.082 -0.065 -0.082 0.009 -0.049 0.068 0.008 -0.087 0.043 -0.007 -0.031 0.063 0.045 0.059 0.007 -0.07 -0.099 0.071 -0.01 -0.039 -0.099 0.07 0.064 0.066 -0.048 -0.024 -0.018 -0.002 0.068 -0.073 -0.007 0.096 0.015 -0.012 -0.046 0.089 0.018 -0.089 0.05 -0.06 0.088 -0.072 0.024 -0.017 -0.076 -0.071 0.037 -0.019 -0.009 0.072 0.001 0.071 -0.04 0.045 -0.081 0.035 -0.078 0.066 -0.09 -0.013 -0.06 0.091 -0.056 0.085 0.037 0.031 0.08 -0.086 -0.012 -0.09 -0.062 -0.005 -0.043 0.088 0.083 0.076 0.049 0.068 0.017 -0.076 0.024 0.073 -0.01 0.012 -0.012 0.009 0.057 -0.065 0.014 0.021 -0.025 0.047 -0.078 -0.07 0.059 0.034 -0.074 0.075 0.076 0.043 -0.069 0.02 -0.016 -0.094 0.096 -0.073 -0.061 0.011 0.028 -0.06 -0.083 0.01 -0.026 -0.051 -0.053 -0.025 -0.01 0.036 -0.086 0.086 0.069 -0.059 0.029 -0.003 -0.083 -0.076 -0.008 0.04 -0.033 0.043 0.074 0.084 -0.043 0.01 0.065 0.084 0.084 -0.021 -0.093 -0.074 -0.034 0.045 -0.051 -0.072 0.083 -0.029 0.095 0.095 0.082 -0.052 0.014 0.012 -0.002 0.002 0 -0.058 0.049 -0.099 -0.011 -0.042 0.038 -0.019 -0.095 -0.049 -0.077 0.076 -0.048 0.046 -0.058 -0.047 -0.031 0.038 0.033 0.098 -0.021 -0.098 -0.073 -0.019 0.015 -0.02 0.024 -0.06 -0.072 -0.074 0.093 0.058 -0.082 0.042 0.07 -0.007 0.029 -0.036 0.098 -0.071 -0.014 -0.031 -0.056 -0.05 -0.017 0.036 -0.09 -0.044 0.012 -0.053 -0.011 -0.016 0.01 -0.004 -0.066 0.046 0.012 -0.086 0.084 -0.021 0.004 -0.021 0.07 -0.077 -0.033 0.033 -0.089 -0.018 0.033 -0.03 0.036 -0.015 0.087 -0.005 0.022 -0.081 0.013 -0.095 -0.032 -0.062 0.086 0.094 0.003 -0.074 0.053 0.095 -0.009 0.084 -0.069 -0.056 0.059 -0.006 -0.043 0.047 -0.046 -0.001 -0.099 0.094 -0.098 0.038 0.019 0.021 -0.06 0.088 -0.018 0.059 -0.093 0.068 -0.054 -0.078 -0.089 0.063 -0.091 -0.078 0.058 -0.067 -0.066 -0.054 -0.002 -0.095 -0.083 0.082 0.096 -0.039 -0.063 -0.07 -0.079 -0.017 0.007 -0.002 -0.042 0.05 -0.059 0.016 -0.058 0.005 -0.068 0.006 0.012 -0.091 0.046 0.057 -0.012 0.094 0.078 0.01 0.046 0.042 -0.082 0.017 -0.093 0.019 -0.036 -0.029 0.091 -0.06 -0.098 -0.053 -0.051 0.061 0.033 -0.055 0.012 0.026 -0.046 -0.043 -0.043 -0.067 0.008 0 -0.064 -0.0475578 0.0881032 -0.0405244 -0.0844633 0.054666 -0.0430241 0.0737359 0.0424216 -0.087363 0.067853 -0.0561405 0.0024774 -0.0180332 0.0301332 -0.0852919 0.0631115 0.0912565 0.0628335 -0.0683344 0.0329461 -0.0606525 0.0857257 0.0156096 0.00838697 0.0517667 0.0972774 -0.0459405 -0.00643985 0.0452943 -0.0845782 0.0825799 0.0226938 0.0876542 -0.0888225 -0.0152492 -0.0725653 -0.0188142 -0.0202975 -0.0779752 0.0112425 0.0950256 0.0347672 -0.0106447 -0.0173855 -0.0364501 -0.0913509 -0.0319083 -0.076673 0.098352 -0.0232501 -0.0873982 0.0628714 -0.0214039 0.0690734 -0.0438739 -0.0813308 -0.0931609 0.0810705 -0.0322204 0.0957036 0.0821149 0.0576644 0.00859294 -0.00895868 -0.0235856 0.0475745 -0.079039 0.0403189 -0.0640897 -0.0689201 0.045771 0.0971724 -0.030076 0.0978813 -0.0450384 0.0574821 0.00482518 0.0560524 0.00213475 -0.0513566 0.0261424 0.0379935 -0.0244917 -0.0445913 0.0390917 -0.0540533 -0.0683001 -0.0373266 0.0486982 -0.0704658 -0.062347 0.0392955 -0.0680869 0.0226144 0.088018 -0.0394023 -0.0652584 0.0581374 -0.0580285 -0.0255676 -0.0663123 0.0836358 -0.00795858 0.0559402 0.0572522 -0.0409266 -0.015754 0.0959676 -0.0574769 0.098559 0.0189117 -0.00990947 0.00143068 -0.0253021 -0.00688857 0.0750017 0.000873691 0.042294 -0.0741093 -0.0532123 -0.0702036 -0.0454951 -0.0184908 0.0554242 0.0311739 0.0378864 -0.0310339 0.0494938 0.093999 0.0569068 -0.0268902 0.0909625 0.00200227 0.0614857 -0.0323979 -0.0613114 -0.0270454 -0.0727196 0.0637431 0.0524825 -0.00788187 -0.0359003 -0.0801943 0.0509809 0.0686654 0.052616 -0.0918369 0.039891 0.0212797 0.011318 -0.0263492 -0.0971025 -0.0348542 -0.00383155 -0.0615357 -0.060298 0.0746441 0.0178171 -0.00202065 -0.00855281 0.0487132 0.00581738 -0.0510502 -0.0367436 0.0433637 0.00737182 -0.0817694 -0.0706108 0.00216528 0.0752991 -0.0749925 0.0956482 -0.0168842 -0.0655062 0.0803161 0.027032 -0.0557281 -0.000245598 -0.00468152 0.0364981 0.0192264 -0.0935574 -0.0384606 -0.0466571 -0.0664856 0.0239697 0.0100306 -0.0487225 -0.0188257 0.0853151 0.0443436 0.0838412 0.0146291 0.0452572 -0.00248095 -0.0930909 -0.00414708 0.0429306 -0.0931549 -0.0850226 0.0680291 -0.0292452 -0.0911198 0.0816045 -0.0306773 0.0105341 0.0827938 -0.0350746 -0.0751102 0.0388818 0.0118918 0.0482186 0.0432273 -0.0404377 0.0180824 0.0668021 -0.0050995 0.0346901 0.0258375 -0.031541 -0.00319152 -0.089481 0.0569698 -0.0059257 -0.0286586 -0.00390605 -0.0804481 0.0333538 0.0525204 0.00641935 -0.0651519 -0.0288952 -0.0546976 -0.0774806 0.0667087 -0.0443164 0.0491538 -0.00537934 -0.0471166 0.0972746 -0.088546 -0.0839346 0.00129065 -0.0695244 0.0133766 0.0798592 -0.00651056 -0.036101 -0.0422427 0.0823667 0.0211129 0.00481956 -0.0151743 0.0555742 0.048562 0.0499729 -0.0983191 0.0181511 0.0496637 -0.081087 0.117443 -0.0286546 0.051432 0.062634 -0.0732937 -0.0268321 0.050885 -0.0181099 -0.089171 0.0141778 -0.0323939 0.043744 0.0167473 0.0435132 0.0788339 0.0860885 -0.0607717 -0.0717803 -0.05215 0.0393377 0.0560501 0.0484416 0.00851634 -0.0384332 -0.0645177 -0.0614335 0.0408566 0.0058694 0.0298362 0.0661973 -0.0637592 0.0538646 -0.0681674 0.0395925 -0.0910614 -0.0695251 -0.0512936 -0.0275835 0.0906535 0.0341267 0.0835992 0.0750657 0.0158128 -0.0422116 -0.0777328 -0.000677152 -0.0224842 -0.00626928 -0.00751884 0.0226629 0.0226927 -0.0224802 0.0425382 0.00314432 -0.0252416 0.00576527 -0.00177787 0.0673203 -0.0561537 -0.0350861 -0.00471579 -0.0677635 0.110051 -0.0160305 -0.00670411 -0.00570058 0.00449032 0.0184166 -0.00130054 0.149154 0.0955938 0.0954936 -0.086015 0.125441 0.0245979 -0.073273 -0.0101246 0.0360231 -0.0166478 -0.0182709 -0.092751 0.0517524 0.159548 0.0391821 0.110744 0.080062 0.164202 0.0257897 0.156593 -0.0766172 0.0496396 0.0530362 0.138173 0.0112168 0.0419842 0.0882001 0.00341828 0.0942556 -0.131291 0.241428 -0.0679911 -0.0139284 0.0826857 0.303347 0.0254326 0.0623214 -0.0953486 0.137227 0.0320032 -0.0588682 0.0483764 -0.477094 -0.0521014 0.0907045 -0.230632 0.129477 0.13244 -0.270381 